tree
version=v4
num_class=1
num_tree_per_iteration=1
label_index=0
max_feature_idx=5
objective=regression
feature_names=purchase_count avg_order_value tenure_months recency_days frequency_per_month product_categories
feature_infos=[1:119] [20.150921429161741:499.98896980049324] [1.0015670581886897:119.9937236370895] [1.018428237984025:364.89577773815353] [0.0084617704394562582:106.31293792240845] [1:19]
tree_sizes=2740 2773 2786 2788 2768 2782 2763 2786 2769 2771 2786 2786 2779 2780 2771 2771 2771 2776 2769 2770 2772 2770 2784 2769 2777 2769 2776 2781 2771 2779 2777 2784 2765 2780 2780 2789 2781 2776 2783 2785 2777 2784 2784 2777 2776 2780 2777 2788 2772 2785 2784 2772 2778 2771 2776 2779 2777 2779 2784 2781 2777 2778 2776 2784 2772 2781 2782 2775 2774 2784 2765 2783 2794 2779 2776 2786 2779 2771 2789 2788 2793 2784 2784 2782 2785 2783 2779 2768 2777 2768 2767 2754 2765 2776 2748 2744 2736 2693 2718 2726 2697 2694 2713 2683 2699 2685 2685 2667 2697 2681 2649 2693 2666 2668 2667 2677 2656 2659 2675 2656 2643 2662 2667 2649 2643 2650 2686 2649 2641 2654 2635 2664 2655 2638 2655 2641 2643 2639 2632 2676 2650 2654 2648 2639 2617 2629 2642 2654 2648 2651 2656 2630 2626 2671 2666 2650 2619 2627 2633 2636 2606 2660 2662 2629 2620 2633 2651 2637 2628 2632 2635 2630 2651 2652 2609 2642 2656 2612 2618 2637 2630 2612 2652 2649 2632 2624 2628 2626 2652 2654 2655 2637 2631 2629 2650 2635 2618 2631 2632 2636 2667 2629 2621 2630 2654 2660 2638 2623 2669 2633 2635 2626 2624 2645 2632 2642 2644 2647 2658 2629 2643 2671 2663 2627 2623 2645 2629 2636 2655 2653 2659 2658 2647 2617 2635 2620 2642 2640 2640 2667 2649 2664 2641 2628 2655 2656 2628 2654 2644 2648

Tree=0
num_leaves=31
num_cat=0
split_feature=0 1 1 0 1 1 0 0 0 1 1 1 0 0 0 1 0 1 1 1 1 1 0 1 1 0 1 0 1 1
split_gain=8.96263e+10 7.73124e+10 1.23779e+10 1.0985e+10 1.17606e+10 8.26854e+09 6.1056e+09 3.96974e+09 1.67138e+09 1.65894e+09 1.51279e+09 1.3765e+09 1.19092e+09 1.14944e+09 1.10945e+09 1.04535e+09 7.21915e+08 5.8785e+08 5.8084e+08 5.46199e+08 5.16708e+08 4.87885e+08 4.4364e+08 3.92879e+08 3.42053e+08 3.36086e+08 2.41338e+08 2.33605e+08 2.21401e+08 2.1205e+08
threshold=61.500000000000007 250.65766534838406 374.77926822635243 33.500000000000007 269.13709265678773 142.85526107350753 89.500000000000014 86.500000000000014 15.500000000000002 246.86244256224055 131.10223357241048 90.038937574596545 48.500000000000007 105.50000000000001 90.500000000000014 306.92610214031157 75.500000000000014 428.38374338691546 406.16968670370812 379.87056024021513 193.58110516754832 306.92610214031157 101.50000000000001 424.59908445804325 210.75391229532539 24.500000000000004 438.93338970398901 105.50000000000001 297.96731353220713 199.74015557192493
decision_type=2 2 2 2 2 2 2 2 2 2 2 2 2 2 2 2 2 2 2 2 2 2 2 2 2 2 2 2 2 2
left_child=3 5 7 8 10 11 16 21 28 -10 -5 -2 19 23 24 27 -4 -15 -14 -6 -16 -3 -17 -8 -7 -11 -18 -9 -1 -12
right_child=1 2 6 4 12 14 13 15 9 25 29 -13 18 17 20 22 26 -19 -20 -21 -22 -23 -24 -25 -26 -27 -28 -29 -30 -31
leaf_value=9809.2501108887482 9934.9590741200009 10389.014192251916 10684.147348422226 9882.6734534640709 10166.752804059772 10186.549581672394 10949.917340492999 10587.640364848856 9871.4517805339965 9992.6453794801801 10013.099736153572 10102.92537671989 10343.942747512559 11151.678199547816 10317.582762547085 10748.734089500427 10790.819493944709 11377.094918690769 10516.572707635076 10320.55645296349 10475.59218825531 10533.223932418934 10912.260322742133 11121.836874308861 10312.089529091996 10096.739104021432 10938.42165887004 10720.451729794095 9875.8684405029089 10101.032003000095
leaf_weight=305 265 102 103 244 108 139 61 81 283 177 149 226 118 61 105 85 53 55 83 124 102 138 81 73 89 138 58 56 211 127
leaf_count=305 265 102 103 244 108 139 61 81 283 177 149 226 118 61 105 85 53 55 83 124 102 138 81 73 89 138 58 56 211 127
internal_value=10237.9 10482.7 10785.9 10009 10133.7 10152.9 10975.5 10623.8 9902.42 9959.31 9973.38 10012.3 10326.1 11143.3 10311.6 10744.2 10779.5 11258.6 10415.2 10249 10395.4 10471.9 10828.5 11043.6 10235.6 10038.2 10867.9 10641.9 9836.49 10053.6
internal_weight=4000 1933 1007 2067 953 926 464 543 1114 598 520 491 433 250 435 303 214 116 201 232 207 240 166 134 228 315 111 137 516 276
internal_count=4000 1933 1007 2067 953 926 464 543 1114 598 520 491 433 250 435 303 214 116 201 232 207 240 166 134 228 315 111 137 516 276
is_linear=0
shrinkage=1


Tree=1
num_leaves=31
num_cat=0
split_feature=0 1 1 0 1 1 0 0 0 1 1 1 1 0 0 0 1 1 0 1 0 1 0 1 0 1 1 0 1 1
split_gain=8.08877e+10 6.97878e+10 1.16132e+10 9.91396e+09 1.0614e+10 7.07865e+09 6.08288e+09 3.17093e+09 1.50842e+09 1.49719e+09 1.37264e+09 1.24638e+09 1.07583e+09 1.0748e+09 9.29084e+08 8.59223e+08 6.75643e+08 5.24208e+08 5.19713e+08 4.92944e+08 4.69119e+08 4.64894e+08 3.78682e+08 3.1132e+08 3.05932e+08 2.4525e+08 2.29372e+08 2.19783e+08 2.17422e+08 2.11193e+08
threshold=61.500000000000007 246.86244256224055 363.40500107658244 33.500000000000007 269.13709265678773 142.85526107350753 90.500000000000014 90.500000000000014 15.500000000000002 246.86244256224055 148.31177198436069 82.673135300260213 452.87553939588008 48.500000000000007 85.500000000000014 77.500000000000014 306.92610214031157 406.16968670370812 104.50000000000001 379.87056024021513 72.500000000000014 193.58110516754832 101.50000000000001 441.94418335856795 23.500000000000004 291.49555011298372 201.96131166162928 93.500000000000014 411.79344178810641 148.31177198436069
decision_type=2 2 2 2 2 2 2 2 2 2 2 2 2 2 2 2 2 2 2 2 2 2 2 2 2 2 2 2 2 2
left_child=3 5 7 8 10 11 15 20 -1 29 -5 -2 18 19 26 28 -9 -15 -8 -6 -3 -16 -14 -17 -11 -22 -7 -13 -4 -10
right_child=1 2 6 4 13 14 12 16 9 24 -12 27 22 17 21 23 -18 -19 -20 -21 25 -23 -24 -25 -26 -27 -28 -29 -30 -31
leaf_value=-381.34913935698279 -296.15853738824694 147.76678215634507 327.72860378689239 -327.39611336057374 -67.600733944221787 -77.008761222388159 699.27082572605298 396.32366195796999 -387.38817666330647 -239.42655643560948 -164.5763698766261 -180.94606408140714 858.76277276400879 100.72971253556722 61.800258059095043 527.45718937800484 562.62197728650324 264.72817647543297 866.43772388214768 78.512732415045463 193.30129223632812 199.12845029669293 1085.0544021905639 688.30503016880584 -140.87199911441445 329.62223655464726 38.079447350678628 -87.412288258656744 463.92647995721728 -300.60562057495116
leaf_weight=516 239 113 45 277 108 93 92 129 155 156 243 133 29 118 129 65 116 83 94 124 50 118 51 56 159 97 81 119 84 128
leaf_count=516 239 113 45 277 108 93 92 129 155 156 243 133 29 118 129 65 116 83 94 124 50 118 51 56 159 97 81 119 84 128
internal_value=-4.16255e-07 232.507 516.448 -217.434 -99.0425 -85.3704 683.27 345.992 -318.715 -264.669 -251.309 -214.358 849.699 83.8181 65.0642 506.19 475.061 168.45 783.753 10.4944 224.369 127.406 1003.02 601.899 -189.68 283.255 -23.4332 -136.777 416.416 -348.137
internal_weight=4000 1933 1021 2067 953 912 516 505 1114 598 520 491 266 433 421 250 245 201 186 232 260 247 80 121 315 147 174 252 129 283
internal_count=4000 1933 1021 2067 953 912 516 505 1114 598 520 491 266 433 421 250 245 201 186 232 260 247 80 121 315 147 174 252 129 283
is_linear=0
shrinkage=0.05


Tree=2
num_leaves=31
num_cat=0
split_feature=0 1 1 0 1 1 0 0 1 1 0 1 0 0 0 1 0 1 1 1 1 0 0 1 1 0 1 1 1 0
split_gain=7.30012e+10 6.29949e+10 1.01199e+10 8.94735e+09 9.59687e+09 6.7301e+09 4.98737e+09 3.23808e+09 1.59767e+09 1.37167e+09 1.25884e+09 1.01455e+09 9.45523e+08 9.37324e+08 8.63692e+08 8.43939e+08 5.92585e+08 4.93445e+08 4.89036e+08 4.48722e+08 4.16052e+08 3.76886e+08 3.51412e+08 3.3186e+08 3.19138e+08 3.05342e+08 2.65366e+08 2.331e+08 2.06463e+08 2.06025e+08
threshold=61.500000000000007 250.65766534838406 374.77926822635243 33.500000000000007 295.65650189243303 138.6502068021897 89.500000000000014 86.500000000000014 150.17887014633962 286.41260743818879 20.500000000000004 85.017977570484433 105.50000000000001 90.500000000000014 44.500000000000007 306.92610214031157 75.500000000000014 181.94071888729738 428.38374338691546 408.12014798122135 306.92610214031157 101.50000000000001 9.5000000000000018 424.59908445804325 188.04434352009471 17.500000000000004 152.4819719669554 232.26342142091221 69.639950244452066 98.500000000000014
decision_type=2 2 2 2 2 2 2 2 2 2 2 2 2 2 2 2 2 2 2 2 2 2 2 2 2 2 2 2 2 2
left_child=3 5 7 9 8 11 16 20 28 25 22 -2 23 24 -6 29 -4 -15 -14 -16 -3 -17 -11 -8 -7 -1 -27 -10 -5 -9
right_child=1 2 6 4 14 13 12 15 27 10 -12 -13 18 17 19 21 -18 -19 -20 -21 -22 -23 -24 -25 -26 26 -28 -29 -30 -31
leaf_value=-385.66017810209297 -279.53704540019135 134.30814051908607 402.51285957410499 -361.24226516197473 4.9180686034654322 -73.302685414827792 641.17938572617834 291.14419991629467 -178.1219355294364 -365.98507874503969 -135.96463561241444 -132.81927384531971 824.75654056736676 47.143707347446025 95.237865222516916 459.00278808593748 569.03508124824043 200.68747993164064 1030.3565234375001 234.08757663942734 267.47912332286006 609.72487943672843 -257.48078539905651 799.18531678082195 43.237220677711349 -363.17443501240501 -268.96192408681708 -85.493643698821202 -274.08193433808123 415.86924973476084
leaf_weight=324 245 102 103 116 152 104 61 56 175 126 182 227 61 90 129 85 111 125 55 106 138 81 183 73 135 148 151 111 164 81
leaf_count=324 245 102 103 116 152 104 61 56 175 126 182 227 61 90 129 85 111 125 55 106 138 81 183 73 135 148 151 111 164 81
internal_value=1.22404e-06 220.881 494.596 -206.562 -94.0904 -76.7755 666.065 348.074 -225.291 -302.779 -240.282 -208.976 817.729 60.6661 97.7946 456.741 488.887 136.413 922.239 157.868 210.881 532.548 -301.725 727.257 -7.4747 -352.034 -315.596 -142.172 -310.191 364.887
internal_weight=4000 1933 1007 2067 953 926 464 543 566 1114 491 472 250 454 387 303 214 215 116 235 240 166 309 134 239 623 299 286 280 137
internal_count=4000 1933 1007 2067 953 926 464 543 566 1114 491 472 250 454 387 303 214 215 116 235 240 166 309 134 239 623 299 286 280 137
is_linear=0
shrinkage=0.05


Tree=3
num_leaves=31
num_cat=0
split_feature=0 1 0 1 1 1 0 0 1 1 1 0 0 1 1 1 1 1 1 0 0 1 0 1 1 1 1 0 0 0
split_gain=6.58872e+10 5.26696e+10 1.22997e+10 1.29429e+10 7.99445e+09 5.20965e+09 3.21545e+09 1.74924e+09 1.76187e+09 1.53007e+09 1.35141e+09 1.30351e+09 8.95181e+08 8.21667e+08 8.12938e+08 6.00778e+08 5.58872e+08 4.31835e+08 3.8089e+08 3.74866e+08 3.3694e+08 2.99811e+08 2.93519e+08 2.81036e+08 2.71598e+08 2.71053e+08 2.44712e+08 2.43811e+08 2.42452e+08 2.14237e+08
threshold=70.500000000000014 246.86244256224055 37.500000000000007 248.89538543415932 361.80761688359922 125.62280289744811 96.500000000000014 20.500000000000004 283.51024171150038 119.36064831002442 344.75177748960806 95.500000000000014 51.500000000000007 417.00019765985297 181.94071888729738 71.796148651387782 436.54371657163966 308.41774469969965 308.41774469969965 55.500000000000007 96.500000000000014 156.27782912219126 9.5000000000000018 413.34259496448107 327.25854024831875 395.74325648249749 179.75125626504789 81.500000000000014 105.50000000000001 101.50000000000001
decision_type=2 2 2 2 2 2 2 2 2 2 2 2 2 2 2 2 2 2 2 2 2 2 2 2 2 2 2 2 2 2
left_child=2 5 7 9 11 15 16 18 21 -4 19 24 -12 -8 29 -2 -6 -13 -1 -5 -16 -9 -20 -14 -3 -10 -11 -18 -15 -7
right_child=1 4 3 10 6 14 13 8 25 26 12 17 23 28 20 -17 27 -19 22 -21 -22 -23 -24 -25 -26 -27 -28 -29 -30 -31
leaf_value=-357.35433559874031 -269.72015512177444 227.60023591414745 -302.39894152925211 -37.826718332632531 466.67221977874527 -49.698998278237525 701.50093212890624 -335.49742568969731 -157.82771372034929 -185.70653477381995 92.780375505351344 378.11846689077527 196.95118856227145 802.72462524414061 78.754347468912613 -137.45729960862485 531.73196119225543 526.83063832158632 -345.01370009676037 93.072721479635334 206.72165009254633 -238.85375453404018 -239.15316668254573 317.36821630859379 346.32624973606426 -53.891069561502206 -96.216125239395524 682.64393920898442 957.85979075712316 57.946710759972873
leaf_weight=418 165 138 262 106 131 126 100 160 138 143 139 104 94 40 128 179 46 92 109 113 86 161 164 100 74 115 164 64 68 73
leaf_count=418 165 138 262 106 131 126 100 160 138 143 139 104 94 40 128 179 46 92 109 113 86 161 164 100 74 115 164 64 68 73
internal_value=-5.19542e-07 246.731 -166.9 -46.3066 515.176 -57.1757 660.749 -273.766 -209.256 -213.645 126.185 354.975 189.63 804.777 62.5343 -200.897 536.444 447.922 -327.354 29.715 130.18 -287.025 -281.42 259.022 269.042 -110.584 -137.901 619.535 900.402 -10.2109
internal_weight=4000 1614 2386 1121 857 757 449 1265 574 569 552 408 333 208 413 344 241 196 691 219 214 321 273 194 212 253 307 110 108 199
internal_count=4000 1614 2386 1121 857 757 449 1265 574 569 552 408 333 208 413 344 241 196 691 219 214 321 273 194 212 253 307 110 108 199
is_linear=0
shrinkage=0.05


Tree=4
num_leaves=31
num_cat=0
split_feature=0 1 0 1 0 1 1 1 1 1 0 0 0 1 0 1 1 0 1 0 1 1 0 0 1 0 1 1 1 0
split_gain=5.96218e+10 5.1451e+10 7.34095e+09 8.32165e+09 6.99861e+09 6.91806e+09 4.34402e+09 2.10393e+09 1.38551e+09 1.04966e+09 1.04507e+09 1.03346e+09 7.73788e+08 7.3261e+08 6.95121e+08 6.32081e+08 5.62334e+08 4.12478e+08 3.75759e+08 3.66445e+08 3.18304e+08 3.06878e+08 2.87181e+08 2.41458e+08 2.39653e+08 2.27231e+08 2.09422e+08 1.93937e+08 1.85745e+08 1.82017e+08
threshold=61.500000000000007 265.48090161208228 29.500000000000004 295.65650189243303 88.500000000000014 146.48126948792319 384.8129077560904 386.75252308984102 131.10223357241048 90.038937574596545 44.500000000000007 90.500000000000014 13.500000000000002 222.12446240531349 105.50000000000001 339.87726380637832 222.12446240531349 78.500000000000014 426.7408510218541 75.500000000000014 210.75391229532539 459.7256046108451 41.500000000000007 102.50000000000001 404.10761279488906 102.50000000000001 199.74015557192493 463.30914605464073 45.95298756625288 77.500000000000014
decision_type=2 2 2 2 2 2 2 2 2 2 2 2 2 2 2 2 2 2 2 2 2 2 2 2 2 2 2 2 2 2
left_child=2 5 12 8 7 9 15 19 -4 28 24 20 -1 -14 27 25 -13 -9 -12 -3 -7 -16 -10 -17 -5 -6 -24 -8 -2 -11
right_child=1 4 3 10 6 11 14 17 22 29 18 16 13 -15 21 23 -18 -19 -20 -21 -22 -23 26 -25 -26 -27 -28 -29 -30 -31
leaf_value=-334.30537223561038 -297.50827625621451 170.55344199322641 -294.53126610289229 -67.925374154851895 344.08310291379001 -39.446454685651339 633.78084673713238 387.70209102307336 -199.02905166427811 -180.12111033121744 96.63605490969374 103.46026186719037 -315.14881569500926 -195.76590197891286 790.07684131567032 482.35515418419476 266.49232825302499 540.2236771704446 229.66796679084683 293.59746588940891 72.300153856277461 971.8420870535715 -162.91347133091517 635.4719267003677 40.259820868384168 459.02272949218752 -63.239158823615632 772.24345567491321 -212.55317290275332 -79.968621512382271
leaf_weight=449 110 141 282 99 86 130 85 118 154 60 154 149 219 311 69 52 82 71 81 106 125 35 98 51 106 86 114 36 155 186
leaf_count=449 110 141 282 99 86 130 85 118 154 60 154 149 219 311 69 52 82 71 81 106 125 35 98 51 106 86 114 36 155 186
internal_value=1.16783e-06 199.617 -186.676 -97.2933 465.849 -50.3266 593.521 319.436 -211.239 -178.773 70.5182 84.7272 -286.01 -245.096 756.453 460.213 161.333 444.999 142.49 223.358 15.3313 851.248 -147.064 558.17 -11.9857 401.553 -109.315 674.976 -247.818 -104.396
internal_weight=4000 1933 2067 1088 936 997 500 436 648 511 440 486 979 530 225 275 231 189 235 247 255 104 366 103 205 172 212 121 265 246
internal_count=4000 1933 2067 1088 936 997 500 436 648 511 440 486 979 530 225 275 231 189 235 247 255 104 366 103 205 172 212 121 265 246
is_linear=0
shrinkage=0.05


Tree=5
num_leaves=31
num_cat=0
split_feature=0 1 0 1 1 1 0 0 1 1 0 0 1 1 1 1 1 1 1 0 0 0 0 1 1 0 0 0 1 1
split_gain=5.38377e+10 4.29234e+10 1.00414e+10 1.0942e+10 6.53452e+09 4.26784e+09 2.63371e+09 1.33655e+09 1.19976e+09 1.13229e+09 1.07165e+09 1.01046e+09 9.12016e+08 6.91743e+08 6.7531e+08 4.96335e+08 4.92739e+08 4.69627e+08 3.62188e+08 2.79272e+08 2.77604e+08 2.63583e+08 2.48068e+08 2.47164e+08 2.34509e+08 2.30423e+08 1.83175e+08 1.82149e+08 1.76923e+08 1.66071e+08
threshold=70.500000000000014 246.86244256224055 34.500000000000007 246.86244256224055 361.80761688359922 125.62280289744811 97.500000000000014 51.500000000000007 110.60274852959073 286.41260743818879 95.500000000000014 20.500000000000004 355.98252974021551 417.00019765985297 181.94071888729738 374.77926822635243 61.612390539996987 428.38374338691546 308.41774469969965 96.500000000000014 49.500000000000007 8.5000000000000018 15.500000000000002 148.31177198436069 327.25854024831875 81.500000000000014 109.50000000000001 103.50000000000001 418.48003750362801 179.75125626504789
decision_type=2 2 2 2 2 2 2 2 2 2 2 2 2 2 2 2 2 2 2 2 2 2 2 2 2 2 2 2 2 2
left_child=2 5 9 8 10 16 17 15 -4 22 24 21 -9 -8 27 -5 -2 -6 -12 -16 -10 -11 -1 -24 -3 -19 -15 -7 -14 -22
right_child=1 4 3 7 6 14 13 12 20 11 18 -13 28 26 19 -17 -18 25 -20 -21 29 -23 23 -25 -26 -27 -28 -29 -30 -31
leaf_value=-335.34097385536251 -254.9603156653634 204.10901343304181 -280.58339212511885 -53.663746002430223 417.32889524366038 -41.075709701102717 634.75000049824621 78.276351315462136 -190.57692863268733 -321.50586393837619 340.88258995643031 -113.37138365639581 191.89159962373623 756.48977627840918 71.866221004165709 79.962911527221266 -132.7205836162475 473.95674785539217 477.07543308423914 188.36897597202037 -148.83098560680045 -224.44587360042158 -317.23692501183717 -232.73830794449691 314.43099629170189 612.47198068279113 888.72032226562499 62.678348134775632 292.21174437135136 -58.97618107260945
leaf_weight=294 137 138 263 131 122 138 98 158 156 107 104 198 85 55 128 148 207 51 92 86 99 202 165 182 74 73 50 61 91 107
leaf_count=294 137 138 263 131 122 138 98 158 156 107 104 198 85 55 128 148 207 51 92 86 99 202 165 182 74 73 50 61 91 107
internal_value=-5.90003e-07 223.032 -150.869 -52.0952 465.37 -51.3199 596.982 98.0005 -199.309 -257.386 320.533 -201.552 165.478 730.288 57.0304 17.2206 -181.403 486.977 404.81 118.685 -140.262 -258.056 -301.549 -272.918 242.618 555.502 819.457 -9.2717 243.762 -102.159
internal_weight=4000 1614 2386 1238 857 757 449 613 625 1148 408 507 334 203 413 279 344 246 196 214 362 309 641 347 212 124 105 199 176 206
internal_count=4000 1614 2386 1238 857 757 449 613 625 1148 408 507 334 203 413 279 344 246 196 214 362 309 641 347 212 124 105 199 176 206
is_linear=0
shrinkage=0.05


Tree=6
num_leaves=31
num_cat=0
split_feature=0 1 1 0 1 0 1 1 1 0 0 1 1 1 1 0 0 0 0 1 1 0 0 1 1 0 0 0 1 0
split_gain=4.86762e+10 4.20275e+10 6.16543e+09 5.98891e+09 6.8079e+09 5.52204e+09 3.31529e+09 1.5407e+09 1.11296e+09 9.86655e+08 8.70893e+08 8.65977e+08 6.68382e+08 6.44722e+08 5.96843e+08 5.28534e+08 5.01177e+08 3.2498e+08 3.10188e+08 3.09465e+08 2.37072e+08 2.36241e+08 2.35654e+08 2.27906e+08 2.08162e+08 1.97086e+08 1.83702e+08 1.7217e+08 1.70392e+08 1.6235e+08
threshold=61.500000000000007 273.60361182667464 146.48126948792319 29.500000000000004 293.775452812163 88.500000000000014 398.07566753735949 392.60467516748707 119.36064831002442 81.500000000000014 44.500000000000007 90.038937574596545 220.10843294964624 300.20372055098329 339.87726380637832 102.50000000000001 11.500000000000002 77.500000000000014 76.500000000000014 426.7408510218541 199.74015557192493 102.50000000000001 102.50000000000001 459.7256046108451 404.10761279488906 102.50000000000001 43.500000000000007 13.500000000000002 213.38188021157654 97.500000000000014
decision_type=2 2 2 2 2 2 2 2 2 2 2 2 2 2 2 2 2 2 2 2 2 2 2 2 2 2 2 2 2 2
left_child=3 2 11 13 8 7 14 18 -5 28 24 -2 -11 27 25 -8 -15 -9 -3 -12 -10 -14 -16 -17 -6 -7 -22 -1 -4 -13
right_child=1 5 9 4 10 6 15 17 20 12 19 29 21 16 22 23 -18 -19 -20 -21 26 -23 -24 -25 -26 -27 -28 -29 -30 -31
leaf_value=-321.28209345200486 -224.26383167770675 168.4865859933451 -59.008863491482202 -271.15887399920979 -62.890434028354349 315.36147133431786 608.13386452414773 348.79655471650682 -176.95074273360405 73.278138635545503 87.042082505995225 -126.21240830579342 163.13730799057907 -284.41571263806571 445.49456767733136 716.63228585379466 -168.31840253557479 485.16135792918021 284.40961875513983 207.6355399426119 -150.2371428765191 294.02296668743264 581.19644080528849 863.95958193824413 37.166936163632379 427.51419108072918 -52.230363555983004 -266.48260453730921 37.497829754826846 -42.78415160116397
leaf_weight=272 265 147 90 262 102 82 88 101 190 191 155 151 85 145 63 70 259 77 95 81 90 58 65 42 106 75 102 303 93 95
leaf_count=272 265 147 90 262 102 82 88 101 190 191 155 151 85 145 63 70 259 77 95 81 90 58 65 42 106 75 102 303 93 95
internal_value=1.0462e-07 180.365 -38.3851 -168.672 -87.9396 428.846 543.78 296.125 -191.791 83.3513 62.6912 -161.551 134.479 -258.394 434.271 699.832 -209.987 407.786 213.994 128.432 -137.355 216.224 514.406 771.88 -11.8997 368.938 -98.171 -292.405 -9.96448 -93.9942
internal_weight=4000 1933 1028 2067 1088 905 485 420 644 517 444 511 334 979 285 200 404 178 242 236 382 143 128 112 208 157 192 575 183 246
internal_count=4000 1933 1028 2067 1088 905 485 420 644 517 444 511 334 979 285 200 404 178 242 236 382 143 128 112 208 157 192 575 183 246
is_linear=0
shrinkage=0.05


Tree=7
num_leaves=31
num_cat=0
split_feature=0 1 0 1 1 1 0 1 0 1 1 0 0 1 1 1 1 1 0 0 0 0 1 1 0 1 1 1 0 0
split_gain=4.39728e+10 3.49715e+10 8.21044e+09 8.65406e+09 5.3441e+09 3.48795e+09 2.14983e+09 1.19086e+09 1.16994e+09 1.02879e+09 9.56327e+08 8.82289e+08 5.98349e+08 5.57844e+08 5.52839e+08 4.27004e+08 4.12812e+08 2.79523e+08 2.76147e+08 2.49255e+08 2.35727e+08 2.34637e+08 2.20394e+08 2.19313e+08 2.10151e+08 1.89098e+08 1.77294e+08 1.76975e+08 1.56497e+08 1.50307e+08
threshold=70.500000000000014 246.86244256224055 37.500000000000007 248.89538543415932 361.80761688359922 125.62280289744811 98.500000000000014 286.41260743818879 21.500000000000004 110.60274852959073 344.75177748960806 97.500000000000014 51.500000000000007 181.94071888729738 421.30034444262031 428.38374338691546 61.612390539996987 293.775452812163 21.500000000000004 55.500000000000007 96.500000000000014 9.5000000000000018 156.27782912219126 327.25854024831875 85.500000000000014 179.75125626504789 418.48003750362801 395.74325648249749 102.50000000000001 82.500000000000014
decision_type=2 2 2 2 2 2 2 2 2 2 2 2 2 2 2 2 2 2 2 2 2 2 2 2 2 2 2 2 2 2
left_child=2 5 7 9 11 16 15 18 21 -4 19 23 -12 28 -8 29 -2 -13 -1 -5 -15 -9 -20 -3 -17 -11 -14 -10 -7 -6
right_child=1 4 3 10 6 13 14 8 27 25 12 17 26 20 -16 24 -18 -19 22 -21 -22 -23 -24 -25 -26 -27 -28 -29 -30 -31
leaf_value=-294.20468501565443 -230.99910915402603 189.84193984583806 -252.24609269939484 -33.000892430431442 312.20761240042896 -39.971595271067187 582.92970507812504 -283.94067189050099 -125.10383600994824 -154.89096844596153 77.417340779551068 300.88867219623768 168.40224686409664 64.900859663356101 751.82066416638963 442.52521546378966 -119.11201011316787 427.82850305538369 -274.36988429019328 73.737768251917004 171.93616347202035 -196.48600046586017 -190.16644578849744 292.54250457377378 570.19493741122164 -78.609325248729903 264.1832036615728 -38.023607590177043 53.854912875926317 423.46491438802087
leaf_weight=398 137 152 244 106 51 132 100 126 123 161 139 76 103 128 94 63 207 101 152 113 86 196 159 79 66 164 91 111 67 75
leaf_count=398 137 152 244 106 51 132 100 126 123 161 139 76 103 128 94 63 207 101 152 113 86 196 159 79 66 164 91 111 67 75
internal_value=-2.10794e-07 201.565 -136.348 -37.8198 420.308 -46.0729 539.329 -223.66 -168.878 -174.653 103.227 289.326 156.598 51.8786 664.763 443.9 -163.672 373.323 -266.621 22.0743 107.915 -230.707 -231.321 224.965 507.845 -116.398 213.33 -83.7965 -8.38177 378.432
internal_weight=4000 1614 2386 1121 857 757 449 1265 556 569 552 408 333 413 194 255 344 177 709 219 214 322 311 231 129 325 194 234 199 126
internal_count=4000 1614 2386 1121 857 757 449 1265 556 569 552 408 333 413 194 255 344 177 709 219 214 322 311 231 129 325 194 234 199 126
is_linear=0
shrinkage=0.05


Tree=8
num_leaves=31
num_cat=0
split_feature=0 1 1 0 1 0 1 1 1 1 0 0 1 0 1 0 1 0 0 1 0 0 0 1 1 1 0 1 0 0
split_gain=3.97561e+10 3.43374e+10 5.639e+09 4.88518e+09 5.56991e+09 4.35936e+09 2.26481e+09 1.24053e+09 9.22062e+08 9.11952e+08 8.59704e+08 6.89732e+08 5.38167e+08 5.24805e+08 5.11062e+08 3.77493e+08 3.64931e+08 3.45166e+08 2.97809e+08 2.54917e+08 2.04453e+08 2.03497e+08 1.81028e+08 1.72133e+08 1.67579e+08 1.62375e+08 1.4504e+08 1.43673e+08 1.16476e+08 1.08108e+08
threshold=61.500000000000007 283.51024171150038 160.05979831823615 29.500000000000004 295.65650189243303 90.500000000000014 398.07566753735949 398.07566753735949 150.17887014633962 90.038937574596545 81.500000000000014 44.500000000000007 225.39391608060728 13.500000000000002 210.75391229532539 105.50000000000001 346.82932600349596 77.500000000000014 78.500000000000014 408.12014798122135 97.500000000000014 48.500000000000007 98.500000000000014 459.7256046108451 404.10761279488906 60.054705286058763 109.50000000000001 45.95298756625288 104.50000000000001 107.50000000000001
decision_type=2 2 2 2 2 2 2 2 2 2 2 2 2 2 2 2 2 2 2 2 2 2 2 2 2 2 2 2 2 2
left_child=3 2 9 13 8 7 16 18 25 27 -4 24 29 -1 -15 -8 28 -9 -3 -13 -11 -10 -14 -17 -6 -5 -18 -2 -7 -12
right_child=1 5 10 4 11 6 15 17 21 20 12 19 22 14 -16 23 26 -19 -20 -21 -22 -23 -24 -25 -26 -27 -28 -29 -30 -31
leaf_value=-273.24259027765692 -246.67430601640183 167.89154466242573 4.9608685434201343 -285.72243652343752 -56.033605245628749 313.23195700449492 569.59638990319297 316.9235175930724 -143.22597421610132 -108.68507837902901 59.520153468354309 69.03333119311074 155.66708128297486 -261.10613689330467 -160.46898264693036 659.9532979674259 436.77924357669457 452.94169537833568 282.92014585344981 173.68717726221627 -23.46886883941961 -61.080005814886505 264.08793216061281 799.91393833705365 34.432653394735091 -209.03303121864252 557.81289190995074 -171.9574639892578 405.2576934344952 147.73887939453127
leaf_weight=449 110 153 177 101 99 73 92 98 212 179 133 129 77 207 323 59 71 89 89 106 116 117 77 35 106 218 38 155 65 47
leaf_count=449 110 153 177 101 99 73 92 98 212 179 133 129 77 207 323 59 71 89 89 106 116 117 77 35 106 218 38 155 65 47
internal_value=-1.41254e-07 163.003 -26.0555 -152.436 -79.5209 397.901 509.822 284.936 -172.743 -135.651 94.0492 57.7697 141.261 -233.469 -199.774 641.597 410.591 381.659 210.195 116.239 -75.1763 -114.013 209.878 712.066 -9.25593 -233.314 478.974 -202.972 356.577 82.555
internal_weight=4000 1933 1071 2067 1088 862 433 429 648 560 511 440 334 979 530 186 247 187 242 235 295 329 154 94 205 319 109 265 138 180
internal_count=4000 1933 1071 2067 1088 862 433 429 648 560 511 440 334 979 530 186 247 187 242 235 295 329 154 94 205 319 109 265 138 180
is_linear=0
shrinkage=0.05


Tree=9
num_leaves=31
num_cat=0
split_feature=0 1 0 1 1 1 0 1 0 1 0 0 1 1 1 1 1 1 0 0 0 1 1 1 0 0 0 0 0 0
split_gain=3.59403e+10 2.89295e+10 6.4313e+09 7.05764e+09 3.77234e+09 3.5422e+09 1.71978e+09 1.05607e+09 9.0323e+08 7.76225e+08 6.70354e+08 6.6691e+08 5.96451e+08 5.70195e+08 3.96296e+08 3.78876e+08 2.83381e+08 2.74417e+08 2.6992e+08 2.3846e+08 2.02109e+08 1.92885e+08 1.82193e+08 1.66336e+08 1.36448e+08 1.34402e+08 1.34128e+08 1.29313e+08 1.27283e+08 1.27036e+08
threshold=69.500000000000014 260.84497566278611 34.500000000000007 232.26342142091221 374.77926822635243 146.48126948792319 97.500000000000014 330.86919290267366 93.500000000000014 302.23238664394393 51.500000000000007 17.500000000000004 110.60274852959073 71.796148651387782 197.33487942457614 456.19273918625908 436.54371657163966 306.92610214031157 98.500000000000014 51.500000000000007 18.500000000000004 146.48126948792319 440.35322432626145 327.25854024831875 49.500000000000007 110.50000000000001 97.500000000000014 8.5000000000000018 82.500000000000014 81.500000000000014
decision_type=2 2 2 2 2 2 2 2 2 2 2 2 2 2 2 2 2 2 2 2 2 2 2 2 2 2 2 2 2 2
left_child=2 5 9 12 8 13 16 19 23 20 -9 27 -4 -2 26 25 28 -10 -16 -5 -1 -22 -12 -3 -14 -8 -7 -11 -6 -18
right_child=1 4 3 7 6 14 15 10 17 11 22 -13 24 -15 18 -17 29 -19 -20 -21 21 -23 -24 -25 -26 -27 -28 -29 -30 -31
leaf_value=-269.87579984797003 -200.06840827493107 165.92892324086782 -229.98111413146736 -68.458849362973808 290.99099791283703 -17.439949818452202 520.61586056271119 51.245454429697112 285.3805037913603 -262.16468895980995 146.49850606703222 -97.505960293592921 -162.30770532568019 -82.65970228151842 79.629080567640415 722.25638382523152 398.9994353598737 401.63823649088545 193.62514321463448 31.219825096306977 -259.13599645736372 -181.04054138183596 244.37520290065456 256.58035284883232 -95.388354590480319 624.92484153891519 71.470380394082312 -187.88724542566248 396.51265174278848 506.90316556490393
leaf_weight=361 170 111 257 108 51 96 74 189 85 97 133 221 143 264 136 54 47 126 84 135 141 180 74 93 163 53 76 148 65 65
leaf_count=361 170 111 257 108 51 96 74 189 85 97 133 221 143 264 136 54 47 126 84 135 141 180 74 93 163 53 76 148 65 65
internal_value=-4.71693e-07 178.864 -125.585 -44.7495 388.48 -30.2448 496.244 68.9743 282.274 -210.224 119.327 -160.485 -173.825 -128.649 78.703 611.317 404.893 354.805 123.155 -13.0818 -244.209 -215.344 181.488 207.255 -126.661 564.146 21.846 -217.295 350.12 461.622
internal_weight=4000 1650 2350 1202 824 826 409 639 415 1148 396 466 563 434 392 181 228 211 220 243 682 321 207 204 306 127 172 245 116 112
internal_count=4000 1650 2350 1202 824 826 409 639 415 1148 396 466 563 434 392 181 228 211 220 243 682 321 207 204 306 127 172 245 116 112
is_linear=0
shrinkage=0.05


Tree=10
num_leaves=31
num_cat=0
split_feature=0 1 1 0 1 0 1 1 1 0 0 1 1 1 0 0 1 1 1 0 0 0 1 0 1 0 1 0 1 0
split_gain=3.24449e+10 2.80376e+10 4.6008e+09 3.99057e+09 4.56458e+09 3.56435e+09 1.97082e+09 8.98365e+08 7.51791e+08 7.16652e+08 6.71123e+08 4.92349e+08 4.44163e+08 3.94265e+08 3.69598e+08 3.33581e+08 3.17595e+08 3.12563e+08 3.09087e+08 2.18763e+08 1.93139e+08 1.77006e+08 1.68732e+08 1.66126e+08 1.4226e+08 1.26509e+08 1.42291e+08 1.22943e+08 1.22643e+08 1.10846e+08
threshold=61.500000000000007 283.51024171150038 160.05979831823615 29.500000000000004 246.86244256224055 88.500000000000014 398.07566753735949 386.75252308984102 90.038937574596545 90.500000000000014 47.500000000000007 108.54021081582734 300.20372055098329 230.33999548154893 105.50000000000001 10.500000000000002 370.215051359146 374.77926822635243 339.87726380637832 78.500000000000014 79.500000000000014 97.500000000000014 213.38188021157654 103.50000000000001 467.41368996476814 8.5000000000000018 168.2797513578985 49.500000000000007 45.95298756625288 21.500000000000004
decision_type=2 2 2 2 2 2 2 2 2 2 2 2 2 2 2 2 2 2 2 2 2 2 2 2 2 2 2 2 2 2
left_child=3 2 8 12 11 7 18 20 28 22 17 -5 25 -11 -8 -14 -12 -6 -7 -9 -3 -10 -4 -20 -16 -1 -27 -13 -2 -17
right_child=1 5 9 4 10 6 14 19 21 13 16 27 15 -15 24 29 -18 -19 23 -21 -22 -23 -24 -25 -26 26 -28 -29 -30 -31
leaf_value=-277.2772871959059 -224.07882590553979 147.7963305940564 -19.769374178957058 -226.61584717818383 -68.865877395062839 311.50111380184399 508.06197647958436 287.0004841432733 -98.847675830691898 93.827887963248315 33.449934924195666 -155.3261114717734 -239.04101739698842 223.24717187500002 603.1625465745193 -164.7160798853094 150.22404833984373 33.050783787989154 367.080810546875 398.07577162191905 254.04154418945313 -19.557583220251676 61.114996640486645 481.35384873212399 736.33645272090519 -250.94838507846322 -192.19068934943087 -90.503692478147059 -155.04650030320693 -99.607782921424288
leaf_weight=158 110 149 108 239 148 136 106 118 179 143 109 198 124 100 65 176 125 153 69 71 60 116 160 59 29 231 186 116 155 104
leaf_count=158 110 149 108 239 148 136 106 118 179 143 109 198 124 100 65 176 125 153 69 71 60 116 160 59 29 231 186 116 155 104
internal_value=1.52616e-07 147.254 -23.5835 -137.708 -71.8065 359.513 453.678 249.733 -122.577 84.903 32.3153 -172.539 -210.947 147.087 572.069 -170.768 95.8293 -17.0611 363.987 328.727 178.297 -67.6692 28.5198 419.754 644.248 -239.176 -224.74 -131.379 -183.701 -140.533
internal_weight=4000 1933 1071 2067 1088 862 464 398 560 511 535 553 979 243 200 404 234 301 264 189 209 295 268 128 94 575 417 314 265 280
internal_count=4000 1933 1071 2067 1088 862 464 398 560 511 535 553 979 243 200 404 234 301 264 189 209 295 268 128 94 575 417 314 265 280
is_linear=0
shrinkage=0.05


Tree=11
num_leaves=31
num_cat=0
split_feature=0 1 0 1 1 1 0 1 0 1 0 1 0 1 1 1 1 1 0 1 0 0 1 0 1 1 1 0 0 0
split_gain=2.93886e+10 2.32539e+10 5.48695e+09 5.82983e+09 3.81971e+09 2.17241e+09 1.44583e+09 8.12506e+08 7.92184e+08 7.3383e+08 6.3418e+08 5.9332e+08 4.08555e+08 3.93691e+08 3.43718e+08 3.06596e+08 2.75438e+08 2.34378e+08 1.80079e+08 1.71501e+08 1.59565e+08 1.56666e+08 1.55824e+08 1.49249e+08 1.36925e+08 1.26703e+08 1.23013e+08 1.16027e+08 1.09456e+08 1.07449e+08
threshold=70.500000000000014 241.35117834380011 37.500000000000007 255.15761406792674 361.80761688359922 119.36064831002442 98.500000000000014 278.65164012193219 20.500000000000004 119.36064831002442 90.500000000000014 355.98252974021551 55.500000000000007 421.30034444262031 176.81065403291882 438.93338970398901 303.64432774192892 61.612390539996987 55.500000000000007 156.27782912219126 8.5000000000000018 12.500000000000002 395.74325648249749 104.50000000000001 179.75125626504789 308.41774469969965 60.054705286058763 82.500000000000014 111.50000000000001 98.500000000000014
decision_type=2 2 2 2 2 2 2 2 2 2 2 2 2 2 2 2 2 2 2 2 2 2 2 2 2 2 2 2 2 2
left_child=2 5 7 9 10 17 15 19 20 26 25 18 -13 -8 29 27 -12 -2 -5 -1 -9 -21 -10 -16 -11 -3 -4 -6 -15 -7
right_child=1 4 3 11 6 14 13 8 22 24 16 12 -14 28 23 -17 -18 -19 -20 21 -22 -23 -24 -25 -26 -27 -28 -29 -30 -31
leaf_value=-243.07342599337218 -188.42631088590971 115.82624104817708 -244.62423412616437 -18.403360801129729 260.22077388440147 -45.24125219078752 474.29533398437502 -238.96589037024455 -108.90008486774232 -126.1817892328009 232.65154492371067 85.31423834734494 202.70509498232889 575.26230054952327 56.16445620536804 424.67244554124437 336.90261301087941 -102.63075129810134 69.95667992611726 -244.02691542681529 -165.4452841453182 -168.89523683890769 -30.844024094291356 156.69023049672444 -60.560606047028273 200.91689286665485 -174.59947532943534 351.48397949218753 686.86989955357149 28.275505644612846
leaf_weight=366 137 87 104 111 59 111 100 115 144 143 133 180 126 59 160 111 121 190 120 102 206 217 115 48 179 88 158 85 35 90
leaf_count=366 137 87 104 111 59 111 100 115 144 143 133 180 126 59 160 111 121 190 120 102 206 217 115 48 179 88 158 85 35 90
internal_value=1.07911e-07 164.783 -111.467 -30.9211 338.546 -42.5051 440.486 -182.844 -139.296 -140.26 231.854 87.9878 133.652 543.353 34.3043 362.227 282.314 -138.576 27.498 -219.717 -191.784 -192.919 -74.242 79.3627 -89.7029 158.615 -202.396 314.091 616.818 -12.3233
internal_weight=4000 1614 2386 1121 878 736 449 1265 580 584 429 537 306 194 409 255 254 327 231 685 321 319 259 208 322 175 262 144 94 201
internal_count=4000 1614 2386 1121 878 736 449 1265 580 584 429 537 306 194 409 255 254 327 231 685 321 319 259 208 322 175 262 144 94 201
is_linear=0
shrinkage=0.05


Tree=12
num_leaves=31
num_cat=0
split_feature=0 1 0 1 1 1 0 1 1 0 0 0 1 1 1 0 1 1 0 0 0 1 1 1 0 0 1 1 0 0
split_gain=2.65392e+10 2.1311e+10 4.7431e+09 5.21968e+09 2.78173e+09 2.61956e+09 1.35678e+09 8.01267e+08 5.72619e+08 5.60999e+08 4.98402e+08 4.9076e+08 4.49408e+08 4.47335e+08 3.79398e+08 2.89124e+08 2.81766e+08 1.76784e+08 1.73026e+08 1.56468e+08 1.51532e+08 1.46835e+08 1.43402e+08 1.4282e+08 1.18527e+08 1.14309e+08 1.08112e+08 1.06901e+08 9.80973e+07 9.77341e+07
threshold=69.500000000000014 260.84497566278611 34.500000000000007 232.26342142091221 361.80761688359922 150.17887014633962 96.500000000000014 330.86919290267366 302.23238664394393 99.500000000000014 51.500000000000007 17.500000000000004 88.337852201806911 90.038937574596545 431.7399643637786 96.500000000000014 436.54371657163966 205.9278884203998 51.500000000000007 18.500000000000004 83.500000000000014 440.35322432626145 210.75391229532539 146.48126948792319 110.50000000000001 110.50000000000001 178.28277364175824 463.30914605464073 25.500000000000004 82.500000000000014
decision_type=2 2 2 2 2 2 2 2 2 2 2 2 2 2 2 2 2 2 2 2 2 2 2 2 2 2 2 2 2 2
left_child=2 5 8 12 9 13 16 18 19 20 27 -10 -4 -2 25 22 29 -17 -5 -1 -3 -12 -7 -21 -16 -8 -14 -9 -13 -6
right_child=1 4 3 7 6 15 14 10 11 -11 21 28 26 -15 24 17 -18 -19 -20 23 -22 -23 -24 -25 -26 -27 -28 -29 -30 -31
leaf_value=-232.37639447579423 -158.92457842589505 141.29687530797557 -210.62879065688776 -59.342282203391747 241.8659533891522 -5.1786362408572799 413.37458117847711 22.212841664041793 -186.6162818379305 311.82532272895759 125.35083936533533 -117.93211778711391 -138.28990716174641 -58.43618736245611 545.88509990985574 71.627432847577481 396.22237383868242 176.29028416683801 25.565958770441789 -222.07786492963211 222.26246739829458 213.21832696038325 75.513968195365024 -154.8776259358724 668.18912811279301 510.41544442806611 -82.497274432791045 108.02106634646046 -51.290788877115837 327.09095507812503
leaf_weight=361 221 109 196 108 61 117 71 140 245 137 133 108 226 222 52 86 111 76 135 141 123 74 104 180 32 53 141 49 113 75
leaf_count=361 221 109 196 108 61 117 71 140 245 137 133 108 226 222 52 86 111 76 135 141 123 74 104 180 32 53 141 49 113 75
internal_value=1.00281e-07 153.701 -107.918 -38.4973 333.611 -25.7743 416.343 59.3037 -180.603 231.598 103.163 -137.883 -149.501 -108.567 510.431 69.9884 337.111 120.729 -12.171 -209.793 184.223 156.762 32.7944 -184.395 592.477 454.852 -116.855 44.4594 -83.8576 288.865
internal_weight=4000 1650 2350 1202 824 826 455 639 1148 369 396 466 563 443 208 383 247 162 243 682 232 207 221 321 84 124 367 189 221 136
internal_count=4000 1650 2350 1202 824 826 455 639 1148 369 396 466 563 443 208 383 247 162 243 682 232 207 221 321 84 124 367 189 221 136
is_linear=0
shrinkage=0.05


Tree=13
num_leaves=31
num_cat=0
split_feature=0 1 0 1 1 1 0 0 1 1 1 0 1 1 0 1 0 0 0 0 0 1 0 0 1 0 0 0 0 0
split_gain=2.39609e+10 2.01423e+10 3.6596e+09 3.96839e+09 3.02889e+09 2.2695e+09 1.31616e+09 6.68738e+08 5.1827e+08 4.72389e+08 4.54049e+08 4.36435e+08 4.18038e+08 3.65417e+08 3.53883e+08 2.93978e+08 2.58969e+08 2.11427e+08 1.83823e+08 1.5551e+08 1.49769e+08 1.42372e+08 1.33794e+08 1.19176e+08 1.16479e+08 1.1508e+08 1.11335e+08 1.1067e+08 1.10013e+08 1.06693e+08
threshold=65.500000000000014 275.05991719623188 34.500000000000007 264.19546530092953 140.36444078671335 374.77926822635243 95.500000000000014 93.500000000000014 306.92610214031157 110.60274852959073 199.74015557192493 19.500000000000004 384.8129077560904 71.796148651387782 103.50000000000001 456.19273918625908 49.500000000000007 78.500000000000014 50.500000000000007 111.50000000000001 21.500000000000004 465.78995671486359 87.500000000000014 49.500000000000007 131.10223357241048 79.500000000000014 8.5000000000000018 82.500000000000014 110.50000000000001 91.500000000000014
decision_type=2 2 2 2 2 2 2 2 2 2 2 2 2 2 2 2 2 2 2 2 2 2 2 2 2 2 2 2 2 2
left_child=2 4 8 9 13 7 17 25 20 -4 22 26 18 -2 27 28 -14 -7 -5 -9 -1 -19 -6 -11 -22 -3 -10 -12 -8 -15
right_child=1 5 3 12 10 6 15 19 11 23 14 -13 16 29 -16 -17 -18 21 -20 -21 24 -23 -24 -25 -26 -27 -28 -29 -30 -31
leaf_value=-216.58204771398675 -167.9982973198737 135.32628214380765 -189.00737033121388 -29.837932907342914 -40.584050634395652 259.43179498487905 419.02861502511161 273.87200330748175 -215.32401640518853 -125.70100374443587 30.711528896499466 -70.70690956785873 54.127787629295803 -113.28129901885987 199.35171228357262 590.59145595005589 157.38323275658394 326.91304509528334 54.920929649798545 379.27408161569156 -210.41705862192009 440.69413600612336 40.316156360977573 -67.011059340663337 -142.77403233225752 209.27837072753906 -147.04000211827895 103.19455803222657 511.02578677771226 -48.785012908101088
leaf_weight=433 186 111 227 120 83 93 84 137 92 172 91 185 119 112 74 56 124 107 137 47 104 37 133 174 164 100 170 125 53 150
leaf_count=433 186 111 227 120 83 93 84 137 92 172 91 185 119 112 74 56 124 107 137 47 104 37 133 174 164 100 170 125 53 150
internal_value=-3.51743e-07 136.734 -109.523 -43.1359 -19.7204 317.653 397.136 231.128 -171.573 -132.958 64.11 -129.502 59.8007 -114.404 104.987 494.072 106.818 318.196 15.3448 300.795 -198.4 356.148 9.2295 -96.1864 -169.024 170.375 -171.018 72.6577 454.619 -76.3559
internal_weight=4000 1779 2221 1073 954 825 430 395 1148 573 506 447 500 448 290 193 243 237 257 184 701 144 216 346 268 211 262 216 137 262
internal_count=4000 1779 2221 1073 954 825 430 395 1148 573 506 447 500 448 290 193 243 237 257 184 701 144 216 346 268 211 262 216 137 262
is_linear=0
shrinkage=0.05


Tree=14
num_leaves=31
num_cat=0
split_feature=0 1 1 0 1 0 1 1 0 1 0 1 1 0 1 0 1 1 0 0 1 0 1 0 0 1 1 1 1 0
split_gain=2.16434e+10 1.87517e+10 3.05582e+09 2.67153e+09 3.06686e+09 2.40232e+09 1.28326e+09 6.83708e+08 5.50147e+08 5.11169e+08 4.11282e+08 3.96062e+08 3.70251e+08 3.07421e+08 3.35619e+08 2.18228e+08 2.02414e+08 1.85984e+08 1.78061e+08 1.64847e+08 1.51159e+08 1.39939e+08 1.20192e+08 1.02022e+08 9.92856e+07 9.62646e+07 9.61144e+07 9.26408e+07 9.00671e+07 8.84989e+07
threshold=61.500000000000007 283.51024171150038 144.5664927187502 29.500000000000004 293.775452812163 90.500000000000014 398.07566753735949 398.07566753735949 81.500000000000014 178.28277364175824 42.500000000000007 218.65558833447957 100.2390646029238 8.5000000000000018 210.75391229532539 108.50000000000001 339.87726380637832 426.7408510218541 78.500000000000014 78.500000000000014 69.639950244452066 108.50000000000001 51.088414311781918 108.50000000000001 43.500000000000007 463.30914605464073 467.41368996476814 205.9278884203998 430.42617802753932 21.500000000000004
decision_type=2 2 2 2 2 2 2 2 2 2 2 2 2 2 2 2 2 2 2 2 2 2 2 2 2 2 2 2 2 2
left_child=3 2 12 13 9 7 16 19 27 20 28 -10 22 -1 -15 25 -7 -12 -9 -3 -5 -13 -2 -18 -11 -8 -17 -4 -6 -16
right_child=1 5 8 4 10 6 15 18 11 24 17 21 -14 14 29 26 23 -19 -20 -21 -22 -23 -24 -25 -26 -27 -28 -29 -30 -31
leaf_value=-219.35948267836517 -181.22665485143662 123.0370609158784 -48.441102425499665 -206.94780218368189 -42.21160516655236 258.24750457523379 398.68834690403298 240.07563397442857 45.502169355086096 -106.82698470524379 51.96318934203947 123.53371126511519 -56.090694030714339 -197.16844734113241 -144.39293016003023 505.55109725088442 313.09867382812502 140.53230852399554 338.85123862737345 208.61814938663099 -141.53978707781309 226.11785111860797 -117.54944895831022 408.32776855468751 -43.255754879138927 497.46359401393585 629.8724232066761 20.869211412698796 30.16556011559307 -96.973787995388648
leaf_weight=257 128 153 82 133 114 127 74 108 193 112 170 136 195 291 279 53 75 91 79 89 263 44 176 45 136 37 22 117 69 152
leaf_count=257 128 153 82 133 114 127 74 108 193 112 170 136 195 291 279 53 75 91 79 89 263 44 176 45 136 37 22 117 69 152
internal_value=2.62276e-07 120.27 -19.4418 -112.473 -58.5523 293.856 376.94 209.998 59.4427 -128.255 42.5484 95.2592 -109.867 -172.397 -155.681 476.132 302.245 82.8436 281.804 154.511 -163.508 148.61 -144.361 348.81 -71.9653 431.613 542.019 -7.69082 -14.9219 -127.67
internal_weight=4000 1933 1071 2067 1088 862 433 429 572 644 444 373 499 979 722 186 247 261 187 242 396 180 304 120 248 111 75 199 183 431
internal_count=4000 1933 1071 2067 1088 862 433 429 572 644 444 373 499 979 722 186 247 261 187 242 396 180 304 120 248 111 75 199 183 431
is_linear=0
shrinkage=0.05


Tree=15
num_leaves=31
num_cat=0
split_feature=0 1 0 1 1 1 0 1 0 1 1 0 1 1 1 1 0 1 0 0 0 0 1 1 0 0 1 1 1 1
split_gain=1.95886e+10 1.52779e+10 3.86279e+09 3.7363e+09 2.35888e+09 1.57815e+09 1.00029e+09 7.78734e+08 7.32479e+08 5.2282e+08 4.19481e+08 3.93716e+08 2.94939e+08 2.63683e+08 2.34682e+08 2.11386e+08 1.87546e+08 1.6625e+08 1.57547e+08 1.35319e+08 1.28663e+08 1.13002e+08 1.00414e+08 9.99151e+07 9.9515e+07 9.30006e+07 9.29353e+07 9.09003e+07 8.69653e+07 8.49666e+07
threshold=71.500000000000014 246.86244256224055 41.500000000000007 256.86935985670442 352.10354056948455 119.36064831002442 98.500000000000014 311.94312157452032 24.500000000000004 131.10223357241048 398.07566753735949 98.500000000000014 417.00019765985297 181.94071888729738 428.38374338691546 156.27782912219126 12.500000000000002 51.088414311781918 56.500000000000007 9.5000000000000018 57.500000000000007 104.50000000000001 308.41774469969965 293.775452812163 85.500000000000014 105.50000000000001 291.49555011298372 480.67881250664101 445.32642235570171 60.054705286058763
decision_type=2 2 2 2 2 2 2 2 2 2 2 2 2 2 2 2 2 2 2 2 2 2 2 2 2 2 2 2 2 2
left_child=2 5 7 9 11 17 14 15 19 29 20 26 -8 25 -6 -1 -17 -2 -12 -9 -5 -15 -22 -13 -16 -7 -3 -14 -10 -4
right_child=1 4 3 10 6 13 12 8 28 -11 18 23 27 21 24 16 -18 -19 -20 -21 22 -23 -24 -25 -26 -27 -28 -29 -30 -31
leaf_value=-197.96361477952132 -164.70367757556508 102.2420837448304 -199.54350295293898 14.474830168893895 249.43048276229644 -26.691685986847713 381.25995761908376 -187.85235975733346 -42.902922774588362 -58.972757700833405 103.13937981216996 204.07030351426866 472.81785236515407 54.527890361554967 296.57126159667968 -198.02309871065447 -128.82149947531499 -87.62099746039155 194.74889871987955 -118.77033086045881 28.591848820970768 141.37360304229114 113.22497655847572 283.69693336925292 385.54296653053979 45.670560471713543 170.17145943641663 580.19438838252324 27.045380287098165 -138.13529907583492
leaf_weight=409 103 83 84 146 142 145 103 106 136 275 108 72 73 159 60 138 337 218 83 214 57 49 91 87 66 64 128 27 66 171
leaf_count=409 103 83 84 146 142 145 103 106 136 275 108 72 73 159 60 138 337 218 83 214 57 49 91 87 66 64 128 27 66 171
internal_value=1.56909e-08 137.009 -89.3584 -15.0252 282.702 -29.019 356.921 -143.02 -94.5958 -106.793 85.2572 188.224 440.644 35.1316 293.505 -171.614 -148.926 -112.355 142.949 -141.654 47.7773 74.9867 80.6298 247.64 343.175 -4.53291 143.45 501.81 -20.0485 -158.364
internal_weight=4000 1579 2421 1015 841 738 471 1406 522 530 485 370 203 417 268 884 475 321 191 320 294 208 148 159 126 209 211 100 202 255
internal_count=4000 1579 2421 1015 841 738 471 1406 522 530 485 370 203 417 268 884 475 321 191 320 294 208 148 159 126 209 211 100 202 255
is_linear=0
shrinkage=0.05


Tree=16
num_leaves=31
num_cat=0
split_feature=0 1 0 1 1 1 0 1 0 0 1 1 1 1 0 1 1 0 0 1 1 0 1 1 0 0 1 0 0 0
split_gain=1.76942e+10 1.47357e+10 2.8296e+09 2.94283e+09 2.52641e+09 1.43897e+09 1.04057e+09 5.18302e+08 4.98963e+08 4.06838e+08 3.74029e+08 3.21783e+08 3.02927e+08 2.7414e+08 1.94796e+08 1.94278e+08 1.65513e+08 1.40838e+08 1.37903e+08 1.27212e+08 1.21422e+08 1.20022e+08 1.17525e+08 1.11235e+08 1.02077e+08 9.16666e+07 9.04231e+07 8.12804e+07 7.71922e+07 7.44109e+07
threshold=66.500000000000014 241.35117834380011 37.500000000000007 262.66936496324269 358.32089750168507 112.16886386349329 92.500000000000014 353.93632602303279 97.500000000000014 19.500000000000004 154.02794627206399 436.54371657163966 452.87553939588008 175.19037138886185 18.500000000000004 430.42617802753932 175.19037138886185 52.500000000000007 109.50000000000001 293.775452812163 51.088414311781918 89.500000000000014 291.49555011298372 60.054705286058763 105.50000000000001 111.50000000000001 339.87726380637832 55.500000000000007 79.500000000000014 8.5000000000000018
decision_type=2 2 2 2 2 2 2 2 2 2 2 2 2 2 2 2 2 2 2 2 2 2 2 2 2 2 2 2 2 2
left_child=2 5 7 10 8 20 15 14 22 29 23 17 18 24 -1 -6 -16 -5 -8 -10 -2 -15 -3 -4 -7 -14 -19 -13 -24 -9
right_child=1 4 3 11 6 13 12 9 19 -11 -12 27 25 21 16 -17 -18 26 -20 -21 -22 -23 28 -25 -26 -27 -28 -29 -30 -31
leaf_value=-186.75741611135533 -160.37227964730099 85.216151511969926 -193.88049769026509 2.4240491915049045 214.77250666542659 -38.541367183096426 332.97125412127298 -182.07796439034598 187.76860222311583 -35.011249618408598 -61.420117957097993 99.858875505924232 454.57366275427478 17.511868471519971 -172.23259198224105 305.27821971348357 -112.53176171048229 30.009221310177072 422.90461844308038 271.55526437661086 -96.47159291465502 89.789571623648371 117.17788387250296 -127.27492385720308 33.991841856096734 580.20096435546873 100.56359037700453 183.27005933678669 186.43258845631669 -117.96187825202942
leaf_weight=431 116 109 89 159 126 183 109 70 85 169 222 80 53 107 216 112 251 87 70 97 207 124 79 212 66 20 95 46 82 128
leaf_count=431 116 109 89 159 126 183 109 70 85 169 222 80 53 107 216 112 251 87 70 97 207 124 79 212 66 20 95 46 82 128
internal_value=-1.58981e-07 119.545 -92.508 -29.196 253.695 -37.8266 332.339 -142.057 168.439 -91.9931 -110.656 62.0319 403.149 17.0793 -162.517 257.363 -140.145 36.8028 368.141 232.424 -119.42 56.3103 125.308 -146.969 -19.3157 488.992 66.8371 130.311 152.45 -140.629
internal_weight=4000 1745 2255 990 942 803 490 1265 452 367 523 467 252 480 898 238 467 341 179 182 323 231 270 301 249 73 182 126 161 198
internal_count=4000 1745 2255 990 942 803 490 1265 452 367 523 467 252 480 898 238 467 341 179 182 323 231 270 301 249 73 182 126 161 198
is_linear=0
shrinkage=0.05


Tree=17
num_leaves=31
num_cat=0
split_feature=0 1 0 1 1 1 0 1 1 0 0 1 1 1 1 1 0 0 0 1 0 1 1 0 1 0 0 1 0 0
split_gain=1.59976e+10 1.24512e+10 3.15195e+09 3.04771e+09 2.06356e+09 1.18278e+09 8.19458e+08 6.41528e+08 5.66247e+08 5.53574e+08 3.32602e+08 2.68415e+08 2.49095e+08 2.22505e+08 2.0443e+08 1.91514e+08 1.83668e+08 1.76605e+08 1.10353e+08 1.02404e+08 9.93745e+07 9.28828e+07 8.97952e+07 8.57925e+07 8.45536e+07 7.88277e+07 7.85692e+07 6.88708e+07 6.56534e+07 6.33933e+07
threshold=71.500000000000014 241.35117834380011 41.500000000000007 218.65558833447957 352.10354056948455 112.16886386349329 98.500000000000014 336.28405146649965 334.88017164460751 24.500000000000004 98.500000000000014 88.337852201806911 417.00019765985297 169.60892327683374 156.27782912219126 428.38374338691546 19.500000000000004 56.500000000000007 10.500000000000002 42.014524529335347 104.50000000000001 295.65650189243303 467.41368996476814 85.500000000000014 291.49555011298372 56.500000000000007 111.50000000000001 447.34782447212945 109.50000000000001 82.500000000000014
decision_type=2 2 2 2 2 2 2 2 2 2 2 2 2 2 2 2 2 2 2 2 2 2 2 2 2 2 2 2 2 2
left_child=2 5 7 11 10 19 15 14 25 18 24 -4 -8 28 -1 29 -16 27 -9 -2 -15 -12 -19 -17 -3 -5 -14 -10 -7 -6
right_child=1 4 3 8 6 13 12 9 17 -11 21 -13 26 20 16 23 -18 22 -20 -21 -22 -23 -24 -25 -26 -27 -28 -29 -30 -31
leaf_value=-179.19242185112319 -159.41198359309018 91.196544904206931 -161.19918723968138 -23.741077836746712 183.12369651100855 -31.454376467680323 343.55827755233622 -166.62046730735085 52.529235105514523 -10.867005023631183 184.6433238636364 -81.166728612234905 419.64643003402216 37.004650351353462 -165.26713448368855 266.55420613606771 -106.77129750469931 131.21238810221357 -100.70128433098228 -91.136696370890448 113.1267931754129 259.08324142456053 238.84811693274457 349.16413611209759 153.45834944248199 33.018306343844444 510.95433927837178 120.96482428784641 37.700851646336645 251.70330052869073
leaf_weight=409 74 95 166 114 55 156 103 99 120 176 88 284 62 173 239 60 306 123 177 213 57 80 23 66 128 132 38 53 44 87
leaf_count=409 74 95 166 114 55 156 103 99 120 176 88 284 62 173 239 60 306 123 177 213 57 80 23 66 128 132 38 53 44 87
internal_value=7.55198e-08 123.815 -80.7534 -13.6071 251.868 -30.1348 322.354 -129.227 63.7154 -80.1596 166.961 -110.69 398.132 22.3302 -152.474 264.956 -132.424 107.672 -124.346 -108.741 55.8697 220.091 148.169 309.826 126.934 6.71518 454.343 73.4951 -16.2402 225.141
internal_weight=4000 1579 2421 1015 862 717 471 1406 565 452 391 450 203 430 954 268 545 319 276 287 230 168 146 126 223 246 100 173 200 142
internal_count=4000 1579 2421 1015 862 717 471 1406 565 452 391 450 203 430 954 268 545 319 276 287 230 168 146 126 223 246 100 173 200 142
is_linear=0
shrinkage=0.05


Tree=18
num_leaves=31
num_cat=0
split_feature=0 1 0 1 1 1 0 1 0 1 0 1 1 1 1 1 1 0 0 0 1 1 0 1 1 0 0 0 1 0
split_gain=1.44446e+10 1.15698e+10 2.60667e+09 2.5194e+09 1.9718e+09 1.06754e+09 7.98413e+08 5.82754e+08 5.70704e+08 4.26901e+08 3.35233e+08 2.44867e+08 2.30528e+08 1.97894e+08 1.48765e+08 1.395e+08 1.32668e+08 1.26688e+08 1.17414e+08 1.13789e+08 1.00025e+08 9.99267e+07 9.52749e+07 8.88189e+07 8.67243e+07 8.09133e+07 8.07293e+07 7.99137e+07 7.94931e+07 7.14386e+07
threshold=69.500000000000014 238.9366386132626 41.500000000000007 273.60361182667464 352.10354056948455 123.70188899879216 98.500000000000014 288.16583611809796 25.500000000000004 168.2797513578985 98.500000000000014 447.34782447212945 441.94418335856795 465.78995671486359 176.81065403291882 61.612390539996987 126.84158506112635 11.500000000000002 82.500000000000014 9.5000000000000018 334.88017164460751 69.639950244452066 96.500000000000014 445.32642235570171 293.775452812163 57.500000000000007 111.50000000000001 114.50000000000001 327.25854024831875 91.500000000000014
decision_type=2 2 2 2 2 2 2 2 2 2 2 2 2 2 2 2 2 2 2 2 2 2 2 2 2 2 2 2 2 2
left_child=2 5 7 9 10 15 13 16 19 21 28 20 27 18 -7 -2 -1 -18 -6 -9 -5 -4 -16 -10 -12 -22 -14 -8 -3 -17
right_child=1 4 3 11 6 14 12 8 23 -11 24 -13 26 -15 22 29 17 -19 -20 -21 25 -23 -24 -25 -26 -27 -28 -29 -30 -31
leaf_value=-175.72375199368756 -134.12243665329956 99.988119305563245 -164.57013764558016 18.643489772632343 184.46289400141291 -7.4860957284563598 318.0146782226563 -162.75280846076282 -42.732787224224637 -33.729757914903033 171.61295359541731 146.02506580352784 417.21616807725695 331.40176295230265 26.153555924987792 -107.92156740659243 -177.98265986248731 -119.20574863433838 257.69853785856992 -104.20069160592323 51.399931591276143 -105.09149675369264 95.767360574227794 26.515229968291063 243.2796316563398 115.94425514317766 535.9409923735119 404.02290632918078 164.09018332741479 -47.235778558163247
leaf_weight=319 141 181 108 119 94 194 100 123 161 212 82 96 45 57 125 77 123 360 131 255 126 204 81 65 87 79 21 37 66 131
leaf_count=319 141 181 108 119 94 194 100 123 161 212 82 96 45 57 125 77 123 360 131 255 126 204 81 65 87 79 21 37 66 131
internal_value=-1.08638e-07 113.393 -79.6162 -15.3496 234.11 -31.8225 302.614 -122.765 -85.6726 -88.4789 154.244 75.888 378.226 248.184 23.9351 -95.7281 -150.701 -134.174 227.102 -123.253 55.1067 -125.68 53.526 -22.8163 208.506 76.2731 454.992 341.243 117.117 -69.7012
internal_weight=4000 1650 2350 944 901 749 485 1406 604 524 416 420 203 282 400 349 802 483 225 378 324 312 206 226 169 205 66 137 247 208
internal_count=4000 1650 2350 944 901 749 485 1406 604 524 416 420 203 282 400 349 802 483 225 378 324 312 206 226 169 205 66 137 247 208
is_linear=0
shrinkage=0.05


Tree=19
num_leaves=31
num_cat=0
split_feature=0 1 0 1 1 1 0 0 1 0 1 1 0 1 1 0 1 1 0 0 1 1 0 1 1 0 1 0 0 1
split_gain=1.30559e+10 1.09644e+10 2.00993e+09 2.17949e+09 1.49519e+09 1.42663e+09 7.3841e+08 4.63255e+08 3.18823e+08 3.05151e+08 3.0472e+08 2.4998e+08 2.14268e+08 2.02768e+08 1.49462e+08 1.43235e+08 1.28123e+08 1.20975e+08 1.20026e+08 1.1391e+08 1.01815e+08 9.70745e+07 7.84444e+07 7.81817e+07 6.90808e+07 6.66005e+07 6.49215e+07 6.13447e+07 5.99477e+07 5.88443e+07
threshold=65.500000000000014 265.48090161208228 34.500000000000007 238.9366386132626 148.31177198436069 379.87056024021513 94.500000000000014 92.500000000000014 384.8129077560904 15.500000000000002 346.82932600349596 100.2390646029238 104.50000000000001 86.397846653050564 459.7256046108451 49.500000000000007 210.75391229532539 454.83995206756958 50.500000000000007 110.50000000000001 138.6502068021897 333.56476809472366 5.5000000000000009 36.676989233834725 209.02545622050252 82.500000000000014 325.15053395895973 111.50000000000001 83.500000000000014 179.75125626504789
decision_type=2 2 2 2 2 2 2 2 2 2 2 2 2 2 2 2 2 2 2 2 2 2 2 2 2 2 2 2 2 2
left_child=2 4 9 13 11 7 17 21 18 22 20 23 16 -4 27 -10 -6 25 -5 26 -11 -3 -1 -2 -14 -7 -9 -8 -19 -15
right_child=1 5 3 8 12 6 14 19 15 10 -12 -13 24 29 -16 -17 -18 28 -20 -21 -22 -23 -24 -25 -26 -27 -28 -29 -30 -31
leaf_value=-184.57192559392197 -164.27861849698155 88.778291043090832 -150.41085131982129 -29.254869333464526 -2.3802605534506127 173.88008406129603 317.61435269442472 162.32442940159848 41.247980359422058 -158.79337506416516 -50.584075249182554 -37.725627713179705 73.383992069050421 -99.963209970163746 439.74606001420455 118.03963207121819 59.76971877909596 247.35632095336916 33.187798919038073 271.34754943847656 -108.5773923433744 153.82430874806531 -142.34949592996381 -97.748345306941445 154.63462576358879 243.46743934044471 227.67846984863283 390.47928835846659 334.13298339843755 -58.218909650054769
leaf_weight=159 55 125 167 145 171 73 88 76 119 156 190 201 59 215 55 124 161 48 164 72 286 106 357 224 47 65 76 43 34 139
leaf_count=159 55 125 167 145 171 73 88 76 119 156 190 201 59 215 55 124 161 48 164 72 286 106 357 224 47 65 76 43 34 139
internal_value=2.19359e-07 100.932 -80.8458 -31.6467 -19.2815 229.104 297.239 168.307 37.5838 -126.831 -103.538 -80.2371 47.5191 -104.996 370.574 80.4338 27.7587 235.238 3.88622 219.541 -126.301 118.626 -155.36 -110.864 109.41 206.657 195.001 341.532 283.337 -83.5721
internal_weight=4000 1779 2221 1073 918 861 406 455 552 1148 632 480 438 521 186 243 332 220 309 224 442 231 516 279 106 138 152 131 82 354
internal_count=4000 1779 2221 1073 918 861 406 455 552 1148 632 480 438 521 186 243 332 220 309 224 442 231 516 279 106 138 152 131 82 354
is_linear=0
shrinkage=0.05


Tree=20
num_leaves=31
num_cat=0
split_feature=0 1 0 1 1 1 0 1 1 0 0 1 1 0 1 1 1 0 0 0 0 1 1 0 2 1 1 0 0 0
split_gain=1.18168e+10 9.15837e+09 2.31973e+09 2.27226e+09 1.54857e+09 8.56668e+08 6.13226e+08 4.90513e+08 4.42591e+08 3.85773e+08 2.56198e+08 1.87873e+08 1.79316e+08 1.72266e+08 1.69608e+08 1.54671e+08 1.49083e+08 9.76095e+07 9.27768e+07 8.27326e+07 8.17715e+07 7.86501e+07 7.6736e+07 6.80903e+07 6.36458e+07 6.08658e+07 5.77406e+07 5.65231e+07 5.64285e+07 5.56693e+07
threshold=71.500000000000014 238.9366386132626 41.500000000000007 288.16583611809796 352.10354056948455 112.16886386349329 101.50000000000001 353.93632602303279 154.02794627206399 23.500000000000004 105.50000000000001 447.34782447212945 441.94418335856795 21.500000000000004 428.38374338691546 169.60892327683374 207.54694488723848 54.500000000000007 86.500000000000014 85.500000000000014 106.50000000000001 51.088414311781918 69.639950244452066 10.500000000000002 61.993413034701312 300.20372055098329 286.41260743818879 90.500000000000014 108.50000000000001 62.500000000000007
decision_type=2 2 2 2 2 2 2 2 2 2 2 2 2 2 2 2 2 2 2 2 2 2 2 2 2 2 2 2 2 2
left_child=2 5 7 8 10 21 14 13 22 23 18 17 -8 24 27 28 -15 -5 -3 -16 -17 -2 -4 -9 -1 -20 -12 -6 -7 -13
right_child=1 4 3 11 6 15 12 9 -10 -11 26 29 -14 16 19 20 -18 -19 25 -21 -22 -23 -24 -25 -26 -27 -28 -29 -30 -31
leaf_value=-168.25019047851563 -128.3289773589199 83.909183692932132 -148.56962043499126 25.349432299353861 173.88828464084202 -28.570481618034922 316.00325816761369 -141.77873961708764 -30.004309349656104 -9.0067716254429389 165.4839815100845 115.34950883195206 424.21623796735497 -131.41600522306777 228.68114115397134 30.442922596876016 -75.089379744360301 81.262556338684732 112.03732503255208 306.77643010066106 101.9961192057683 -73.761589334322068 -97.062740608056401 -86.026142978010512 -132.88355265142374 172.97611495971682 237.60501346588137 236.38977479098136 33.181064255383554 201.64928613281251
leaf_weight=250 103 120 116 132 99 151 121 88 285 176 49 74 56 291 60 172 197 191 84 78 52 184 192 145 259 80 64 57 49 25
leaf_count=250 103 120 116 132 99 151 121 88 285 176 49 74 56 291 60 172 197 191 84 78 52 184 192 145 259 80 64 57 49 25
internal_value=1.78938e-07 106.413 -69.4038 -11.8 215.397 -26.6362 276.711 -110.988 -74.9095 -64.879 142.654 76.8824 350.24 -129.904 232.444 18.5182 -108.678 58.4126 117.318 272.822 47.0535 -93.345 -116.461 -107.083 -150.254 141.764 206.331 196.725 -13.4414 137.142
internal_weight=4000 1579 2421 1015 868 711 471 1406 593 409 397 422 177 997 294 424 488 323 284 138 224 287 308 233 509 164 113 156 200 99
internal_count=4000 1579 2421 1015 868 711 471 1406 593 409 397 422 177 997 294 424 488 323 284 138 224 287 308 233 509 164 113 156 200 99
is_linear=0
shrinkage=0.05


Tree=21
num_leaves=31
num_cat=0
split_feature=0 1 1 0 1 0 1 1 1 1 0 0 0 1 1 1 0 0 0 0 0 1 0 1 0 1 0 1 1 0
split_gain=1.06653e+10 9.187e+09 1.54317e+09 1.42655e+09 1.61961e+09 1.13968e+09 6.68387e+08 3.56286e+08 2.92999e+08 2.64049e+08 2.50915e+08 1.91739e+08 1.57757e+08 1.66755e+08 1.52595e+08 1.51621e+08 1.28277e+08 1.11963e+08 9.62958e+07 8.11493e+07 7.52219e+07 7.51633e+07 7.5089e+07 6.2974e+07 6.1827e+07 6.12111e+07 6.00802e+07 5.77768e+07 5.67424e+07 5.47555e+07
threshold=62.500000000000007 283.51024171150038 160.05979831823615 28.500000000000004 232.26342142091221 90.500000000000014 398.07566753735949 404.10761279488906 346.82932600349596 102.68909365932119 81.500000000000014 42.500000000000007 6.5000000000000009 183.8221104428994 218.65558833447957 90.038937574596545 110.50000000000001 108.50000000000001 79.500000000000014 101.50000000000001 109.50000000000001 36.676989233834725 78.500000000000014 401.043599337182 45.500000000000007 441.94418335856795 55.500000000000007 325.15053395895973 473.09473649295666 93.500000000000014
decision_type=2 2 2 2 2 2 2 2 2 2 2 2 2 2 2 2 2 2 2 2 2 2 2 2 2 2 2 2 2 2
left_child=3 2 9 12 15 7 17 18 24 21 -4 -10 -1 -14 -12 -5 28 27 -3 -11 -16 -2 -9 -15 -6 -18 -17 -7 -8 -23
right_child=1 5 10 4 8 6 16 22 11 19 14 -13 13 23 20 26 25 -19 -20 -21 -22 29 -24 -25 -26 -27 -28 -29 -30 -31
leaf_value=-163.7568937131872 -151.07957041422526 88.932031273648704 0.22138284144957374 -137.2594022051174 -50.297917320251464 142.5354221050556 287.72163059400481 177.31763644011124 2.1546816797256469 -51.316798040179393 39.357152842236808 76.468737722137604 -145.18347731550077 -107.36061198504675 90.156004701438533 -93.849274993728812 354.26352608816967 255.35486041058553 153.437316792806 10.429748807375944 168.61389081906052 -111.31673725715051 246.03597813197544 -68.202765799283171 -0.6666311749626721 456.70052539062499 -44.577674192190173 207.08459707406851 363.31360437729785 -64.580228531262108
leaf_weight=191 60 162 163 199 125 52 92 92 150 163 154 206 261 346 141 273 35 91 90 79 39 130 70 146 126 25 80 104 34 121
leaf_count=191 60 162 163 199 125 52 92 92 150 163 154 206 261 346 141 273 35 91 90 79 39 130 70 146 126 25 80 104 34 121
internal_value=-2.40702e-08 85.9631 -12.8627 -77.5426 -40.3772 208.474 265.186 149.16 15.9877 -70.327 51.0765 45.1566 -123.172 -112.878 75.895 -102.358 336.773 211.279 111.97 -31.1599 107.155 -100.804 207.011 -95.7406 -25.3834 396.946 -82.6829 185.568 308.119 -88.7864
internal_weight=4000 1897 1050 2103 1159 847 433 414 607 553 497 356 944 753 334 552 186 247 252 242 180 311 162 492 251 60 353 156 126 251
internal_count=4000 1897 1050 2103 1159 847 433 414 607 553 497 356 944 753 334 552 186 247 252 242 180 311 162 492 251 60 353 156 126 251
is_linear=0
shrinkage=0.05


Tree=22
num_leaves=31
num_cat=0
split_feature=0 1 0 1 1 1 0 1 1 0 0 1 1 0 0 1 0 1 1 1 1 1 0 1 1 2 1 0 0 1
split_gain=9.64312e+09 7.47469e+09 1.89387e+09 1.97992e+09 1.00454e+09 9.55413e+08 3.88768e+08 3.51587e+08 3.49728e+08 3.32086e+08 2.39555e+08 1.79277e+08 1.70976e+08 1.44987e+08 1.43165e+08 1.37048e+08 1.28885e+08 1.15376e+08 9.05676e+07 8.62466e+07 7.92281e+07 7.19998e+07 6.71577e+07 6.1051e+07 5.99339e+07 5.15957e+07 4.76914e+07 4.74591e+07 4.53471e+07 4.33387e+07
threshold=71.500000000000014 265.48090161208228 39.500000000000007 218.65558833447957 150.17887014633962 402.88201469115398 94.500000000000014 368.35007130967773 322.51648552472381 102.50000000000001 20.500000000000004 88.337852201806911 90.038937574596545 56.500000000000007 18.500000000000004 327.25854024831875 105.50000000000001 186.13167742378542 209.02545622050252 322.51648552472381 480.67881250664101 467.41368996476814 83.500000000000014 476.97966068478297 459.7256046108451 61.993413034701312 209.02545622050252 55.500000000000007 109.50000000000001 36.676989233834725
decision_type=2 2 2 2 2 2 2 2 2 2 2 2 2 2 2 2 2 2 2 2 2 2 2 2 2 2 2 2 2 2
left_child=2 4 7 11 12 9 23 14 27 15 -9 -4 29 24 25 -3 18 -16 -6 -11 28 -15 -17 -7 -10 -1 -18 -5 -8 -2
right_child=1 5 3 8 16 6 20 10 13 19 -12 -13 -14 21 17 22 26 -19 -20 -21 -22 -23 -24 -25 -26 -27 -28 -29 -30 -31
leaf_value=-155.69273024760022 -137.57467599422372 95.641347876591468 -128.2115866982476 -26.367580111617244 1.4166455670197804 205.36381688435873 288.98105468750003 -98.672271930842115 33.613199294283042 179.16696943803268 -14.972802276670198 -65.473226646025722 -31.686271416632486 98.403486161913193 -124.07717135491498 119.21587588402534 66.568915698402805 -77.541444102017323 58.421321425173019 254.07072249702787 407.00314547631046 193.85910060716714 182.78052871946306 285.11014444986984 94.629930623372402 -121.97593628193908 135.86151775013317 19.342563807865805 352.53200097656253 -83.187744682955454
leaf_weight=223 47 134 181 107 135 120 64 181 158 66 162 307 211 140 261 62 57 272 144 92 31 23 126 30 54 231 44 121 50 166
leaf_count=223 47 134 181 107 135 120 64 181 158 66 162 307 211 140 261 62 57 272 144 92 31 23 126 30 54 231 44 121 50 166
internal_value=-4.36965e-08 96.1291 -62.6964 -13.8692 -10.6775 206.932 277.747 -102.749 46.7252 163.411 -59.1407 -88.743 -63.5872 76.4164 -117.904 134.278 48.3586 -100.329 30.8384 222.782 336.127 111.873 161.818 221.313 49.1552 -138.537 96.7558 -2.10913 316.854 -95.1886
internal_weight=4000 1579 2421 1091 804 775 295 1330 603 480 343 488 424 375 987 322 380 533 279 158 145 163 188 150 212 454 101 228 114 213
internal_count=4000 1579 2421 1091 804 775 295 1330 603 480 343 488 424 375 987 322 380 533 279 158 145 163 188 150 212 454 101 228 114 213
is_linear=0
shrinkage=0.05


Tree=23
num_leaves=31
num_cat=0
split_feature=0 1 0 1 1 0 1 1 0 1 0 0 1 1 1 0 0 0 1 0 1 1 1 0 1 1 0 0 1 0
split_gain=8.72288e+09 7.85894e+09 1.48754e+09 1.11808e+09 8.20415e+08 7.89138e+08 7.52742e+08 3.06852e+08 2.57008e+08 2.03337e+08 1.8255e+08 1.5892e+08 1.54319e+08 1.52923e+08 1.2359e+08 1.14705e+08 9.86303e+07 9.04333e+07 8.3655e+07 7.24368e+07 7.16819e+07 6.35879e+07 5.38678e+07 5.37628e+07 5.01533e+07 4.99265e+07 4.99008e+07 4.79436e+07 4.5875e+07 4.29285e+07
threshold=54.500000000000007 265.48090161208228 83.500000000000014 138.6502068021897 311.94312157452032 26.500000000000004 402.88201469115398 413.34259496448107 87.500000000000014 160.05979831823615 26.500000000000004 104.50000000000001 61.612390539996987 320.45204609796252 207.54694488723848 108.50000000000001 92.500000000000014 40.500000000000007 318.59751692696818 6.5000000000000009 197.33487942457614 60.054705286058763 480.67881250664101 106.50000000000001 459.7256046108451 463.30914605464073 65.500000000000014 6.5000000000000009 447.34782447212945 112.50000000000001
decision_type=2 2 2 2 2 2 2 2 2 2 2 2 2 2 2 2 2 2 2 2 2 2 2 2 2 2 2 2 2 2
left_child=4 3 7 12 9 19 13 18 20 21 27 25 -2 23 -10 -15 -14 28 -3 -6 -5 -1 -13 -4 -19 -8 -9 -11 -7 -16
right_child=1 2 6 8 5 17 11 26 14 10 -12 22 16 15 29 -17 -18 24 -20 -21 -22 -23 -24 -25 -26 -27 -28 -29 -30 -31
leaf_value=-154.75991686934947 -111.86083166650002 34.530517704910203 111.32931854248048 -35.293363519597939 -136.64593069893974 -28.254092181356327 233.40351417178201 122.43750228881837 29.369639991768977 -151.99532725775421 -59.440454322176599 321.9693653681507 -78.519753672902183 178.47425446125294 82.579938979375925 257.60578384399417 -25.368847823143007 25.438063867164381 89.3529355446897 -79.547499295548448 14.32165586737138 -117.31308282393444 414.5882507324219 175.18981534517729 86.562235921223959 299.15030295632101 181.43673644333745 -103.52854310508087 27.344977290413595 162.50593200683593
leaf_weight=159 188 107 90 135 70 114 84 60 164 67 310 73 205 161 105 64 152 132 199 269 158 395 20 52 45 44 89 214 55 20
leaf_count=159 188 107 90 135 70 114 84 60 164 67 310 73 205 161 105 64 152 132 199 269 158 395 20 52 45 44 89 214 55 20
internal_value=4.07994e-09 67.8056 166.716 -23.7326 -80.4034 -37.1202 219.243 98.8354 24.4602 -106.298 -85.8974 292.145 -75.1972 175.342 57.9157 200.983 -55.8897 16.0004 70.183 -91.3377 -8.53851 -128.06 341.887 134.715 40.9781 256.004 157.679 -115.085 -10.1597 95.3681
internal_weight=4000 2170 1043 1127 1830 685 588 455 582 1145 591 221 545 367 289 225 357 346 306 339 293 554 93 142 177 128 149 281 169 125
internal_count=4000 2170 1043 1127 1830 685 588 455 582 1145 591 221 545 367 289 225 357 346 306 339 293 554 93 142 177 128 149 281 169 125
is_linear=0
shrinkage=0.05


Tree=24
num_leaves=31
num_cat=0
split_feature=0 1 0 1 1 1 0 1 0 1 0 1 1 0 1 1 0 0 0 0 1 1 0 0 1 0 1 1 0 1
split_gain=7.88849e+09 6.5485e+09 1.27688e+09 1.40873e+09 1.17869e+09 6.30387e+08 4.91661e+08 2.3207e+08 2.30935e+08 1.71033e+08 1.71484e+08 1.60243e+08 1.37749e+08 1.37479e+08 1.17264e+08 1.01286e+08 8.11576e+07 7.12118e+07 6.58285e+07 6.2615e+07 5.82565e+07 5.70069e+07 5.22225e+07 5.11419e+07 5.06802e+07 4.6746e+07 4.66767e+07 4.34393e+07 4.30816e+07 4.26624e+07
threshold=66.500000000000014 237.41510719967832 32.500000000000007 238.9366386132626 352.10354056948455 110.60274852959073 92.500000000000014 344.75177748960806 90.500000000000014 209.02545622050252 10.500000000000002 410.07637560171543 82.673135300260213 49.500000000000007 175.19037138886185 441.94418335856795 111.50000000000001 96.500000000000014 113.50000000000001 102.50000000000001 401.043599337182 32.808497987652721 93.500000000000014 50.500000000000007 295.65650189243303 51.500000000000007 318.59751692696818 447.34782447212945 114.50000000000001 467.41368996476814
decision_type=2 2 2 2 2 2 2 2 2 2 2 2 2 2 2 2 2 2 2 2 2 2 2 2 2 2 2 2 2 2
left_child=2 5 9 12 8 21 15 23 26 -1 -11 28 -4 29 19 -6 -13 -16 24 -7 -12 -2 -23 -5 -10 -14 -3 -15 -8 -9
right_child=1 4 3 7 6 14 11 13 18 10 20 16 25 27 17 -17 -18 -19 -20 -21 -22 22 -24 -25 -26 -27 -28 -29 -30 -31
leaf_value=-125.56340536434701 -137.06234283447267 52.688238848580255 -118.7794518077441 -31.975334138488769 144.31361047605807 -29.794902658327061 210.03607736141126 6.6610729758195051 105.78189306992752 -123.48002544403076 -80.853316214571038 279.57546217512379 -80.857948754050526 66.269118204116822 14.223934915507281 209.99900391896568 362.27768147786463 72.859559086390902 198.85577450706847 23.554280388355256 -43.161251507049954 -96.241785090519841 -52.670003731610031 13.164006275458943 156.02594258416559 -46.006468826427799 103.0013503592355 117.81106941469255 287.76267755681823 63.317417263454871
leaf_weight=427 40 135 177 125 151 176 94 127 104 200 299 101 220 120 135 96 42 84 42 80 156 130 146 126 97 171 70 62 22 45
leaf_count=427 40 135 177 125 151 176 94 127 104 200 299 101 220 120 135 96 42 84 42 80 156 130 146 126 97 171 70 62 22 45
internal_value=-3.01079e-07 79.8201 -61.7677 -25.6319 168.018 -26.5523 220.313 27.4604 108.953 -100.943 -84.8921 268.444 -82.1828 53.5362 9.85447 169.843 303.866 36.7143 141.925 -13.1233 -67.9303 -81.2777 -73.1929 -9.31574 130.029 -65.616 69.8683 83.8274 224.777 21.484
internal_weight=4000 1745 2255 1173 954 791 506 605 448 1082 655 259 568 354 475 247 143 219 243 256 455 316 276 251 201 391 205 182 116 172
internal_count=4000 1745 2255 1173 954 791 506 605 448 1082 655 259 568 354 475 247 143 219 243 256 455 316 276 251 201 391 205 182 116 172
is_linear=0
shrinkage=0.05


Tree=25
num_leaves=31
num_cat=0
split_feature=0 1 0 1 1 1 0 1 0 1 0 1 1 1 1 0 1 0 0 0 0 1 0 1 1 0 1 1 1 0
split_gain=7.13207e+09 5.51077e+09 1.40449e+09 1.36684e+09 9.59757e+08 5.12255e+08 3.79852e+08 3.08277e+08 3.06083e+08 2.59583e+08 1.56178e+08 1.22017e+08 1.20426e+08 1.02446e+08 9.47723e+07 8.50041e+07 8.38362e+07 7.26944e+07 6.96717e+07 6.5639e+07 6.02168e+07 5.812e+07 5.78107e+07 5.20733e+07 4.64417e+07 4.413e+07 4.1358e+07 4.02073e+07 3.8053e+07 3.7039e+07
threshold=71.500000000000014 237.41510719967832 41.500000000000007 218.65558833447957 352.10354056948455 108.54021081582734 103.50000000000001 278.65164012193219 25.500000000000004 334.88017164460751 105.50000000000001 119.36064831002442 465.78995671486359 441.94418335856795 169.60892327683374 56.500000000000007 66.074066473506022 13.500000000000002 90.500000000000014 6.5000000000000009 96.500000000000014 445.32642235570171 85.500000000000014 467.41368996476814 42.014524529335347 108.50000000000001 36.676989233834725 300.20372055098329 286.41260743818879 56.500000000000007
decision_type=2 2 2 2 2 2 2 2 2 2 2 2 2 2 2 2 2 2 2 2 2 2 2 2 2 2 2 2 2 2
left_child=2 5 7 11 10 24 12 16 19 29 22 26 18 -8 25 -11 -1 -18 -6 -9 -16 -10 -3 -17 -2 -7 -4 -24 -12 -5
right_child=1 4 3 9 6 14 13 8 21 15 28 -13 -14 -15 20 23 17 -19 -20 -21 -22 -23 27 -25 -26 -27 -28 -29 -30 -31
leaf_value=-143.43856689453125 -108.3819708334433 62.029030521495919 -145.32839263916017 -16.785192769896565 145.82926957413957 -24.013538771271708 251.08233596513855 -125.08196740311185 -30.794138829098195 48.735685286218725 126.7769002685547 -46.891830934147507 244.13594426081733 337.90680273437505 13.153941467475892 87.62979958076788 -124.05477389381045 -88.039685343110364 199.537061623966 -76.43637103123271 66.124192507977185 24.704980553847093 85.408832213699185 169.59652418053668 -62.050457427750771 29.006901829059309 -89.515251965645035 133.13187626429968 184.99286785125733 22.121805531508997
leaf_weight=135 74 111 40 114 148 160 106 89 172 173 50 215 65 50 125 123 210 421 102 314 94 65 93 23 201 52 195 84 64 132
leaf_count=135 74 111 40 114 148 160 106 89 172 173 50 215 65 50 125 123 210 421 102 314 94 65 93 23 201 52 195 84 64 132
internal_value=-1.39678e-07 82.6712 -53.919 -9.09688 166.671 -21.1987 215.105 -86.2763 -60.6626 42.685 109.925 -74.1119 183.506 278.911 12.8216 72.4466 -107.677 -100.026 167.742 -87.1794 35.89 -15.5729 90.3171 100.542 -74.5178 -11.0085 -99.0154 108.057 159.46 4.09173
internal_weight=4000 1579 2421 1015 873 706 471 1406 640 565 402 450 315 156 431 319 766 631 250 403 219 237 288 146 275 212 235 177 114 246
internal_count=4000 1579 2421 1015 873 706 471 1406 640 565 402 450 315 156 431 319 766 631 250 403 219 237 288 146 275 212 235 177 114 246
is_linear=0
shrinkage=0.05


Tree=26
num_leaves=31
num_cat=0
split_feature=0 1 0 1 1 0 1 0 1 1 1 0 0 0 1 1 0 1 0 1 0 1 0 1 0 0 0 1 0 0
split_gain=6.43719e+09 5.80396e+09 1.06412e+09 9.73494e+08 6.1215e+08 5.87012e+08 4.87317e+08 2.38208e+08 1.96053e+08 1.56207e+08 1.54573e+08 1.37813e+08 1.19539e+08 1.15559e+08 9.77382e+07 6.76288e+07 6.6868e+07 5.67133e+07 5.57637e+07 4.99758e+07 4.79061e+07 4.78489e+07 4.7202e+07 4.62973e+07 4.191e+07 4.0021e+07 3.84666e+07 3.68768e+07 3.55665e+07 3.39378e+07
threshold=54.500000000000007 282.0272881796447 83.500000000000014 152.4819719669554 311.94312157452032 26.500000000000004 402.88201469115398 81.500000000000014 413.34259496448107 160.05979831823615 85.017977570484433 26.500000000000004 109.50000000000001 111.50000000000001 218.65558833447957 467.41368996476814 95.500000000000014 336.28405146649965 11.500000000000002 53.588725889044916 46.500000000000007 32.808497987652721 114.50000000000001 469.92119013202608 64.500000000000014 110.50000000000001 6.5000000000000009 467.41368996476814 21.500000000000004 65.500000000000014
decision_type=2 2 2 2 2 2 2 2 2 2 2 2 2 2 2 2 2 2 2 2 2 2 2 2 2 2 2 2 2 2
left_child=4 3 8 10 9 18 13 -5 24 19 21 26 23 17 25 20 -12 -4 -6 -1 -7 -2 -16 -8 -3 -9 -11 -14 -21 -10
right_child=1 2 6 7 5 15 12 14 29 11 16 -13 27 -15 22 -17 -18 -19 -20 28 -22 -23 -24 -25 -26 -27 -28 -29 -30 -31
leaf_value=-136.96921169704862 -128.50998224431819 39.557285110905489 117.18442587890625 -7.6495855854259993 -103.83867135481401 -11.544507519829082 210.83109763405542 17.219710498506373 106.35715342203775 -131.97937968239856 -53.813158339911176 -50.569819401271886 284.06446477716617 217.02941758897569 73.702860093274651 56.513212778761584 -6.9322478947092279 163.36603440835444 -62.250129675750003 -119.70614219530094 33.726443115683161 -76.617852606917879 152.0951873779297 270.11715451504324 79.66230536127938 74.868824122502261 -88.566307117783026 365.94775512695315 -90.011073474121105 155.01294267632989
leaf_weight=135 55 106 125 241 132 187 110 132 60 67 202 310 44 63 151 74 122 142 207 169 85 231 22 47 169 39 214 20 250 89
leaf_count=135 55 106 125 241 132 187 110 132 60 67 202 310 44 63 151 74 122 142 207 169 85 231 22 47 169 39 214 20 250 89
internal_value=9.89974e-08 58.2484 148.777 -15.6136 -69.0705 -31.6826 194.598 30.4693 89.2301 -91.4379 -59.8078 -73.5574 252.058 156.118 57.1747 14.1327 -36.1605 141.745 -78.4439 -110.513 2.60266 -86.5971 83.6718 228.579 64.2036 30.3678 -98.9175 309.653 -101.988 135.42
internal_weight=4000 2170 975 1195 1830 685 551 585 424 1145 610 591 221 330 344 346 324 267 339 554 272 286 173 157 275 171 281 64 419 149
internal_count=4000 2170 975 1195 1830 685 551 585 424 1145 610 591 221 330 344 346 324 267 339 554 272 286 173 157 275 171 281 64 419 149
is_linear=0
shrinkage=0.05


Tree=27
num_leaves=31
num_cat=0
split_feature=0 1 0 1 1 1 0 1 0 0 1 2 1 1 0 1 1 1 1 2 1 0 1 0 0 0 0 1 1 1
split_gain=5.82161e+09 4.49423e+09 1.15427e+09 1.24598e+09 6.08532e+08 5.83032e+08 2.63194e+08 1.98055e+08 1.95141e+08 1.92798e+08 1.97863e+08 1.34138e+08 1.22033e+08 1.18229e+08 9.44809e+07 8.14733e+07 6.41487e+07 6.02195e+07 5.73154e+07 5.40575e+07 4.79594e+07 4.58282e+07 4.43827e+07 4.37231e+07 4.19022e+07 4.00496e+07 3.96762e+07 3.76924e+07 3.54722e+07 3.31501e+07
threshold=71.500000000000014 265.48090161208228 37.500000000000007 230.33999548154893 126.84158506112635 399.64789208597796 94.500000000000014 355.98252974021551 102.50000000000001 16.500000000000004 352.10354056948455 6.2611228302942239 88.337852201806911 197.33487942457614 55.500000000000007 327.25854024831875 58.048748061090961 119.36064831002442 480.67881250664101 63.190246557616526 322.51648552472381 55.500000000000007 476.97966068478297 94.500000000000014 99.500000000000014 83.500000000000014 79.500000000000014 467.41368996476814 171.6954068659318 463.30914605464073
decision_type=2 2 2 2 2 2 2 2 2 2 2 2 2 2 2 2 2 2 2 2 2 2 2 2 2 2 2 2 2 2
left_child=2 4 9 12 16 8 22 21 15 19 17 -6 -4 25 29 -3 -2 -11 -8 -1 -10 -5 -7 -18 -15 -13 -17 -16 -14 -9
right_child=1 5 3 7 11 6 18 14 20 10 -12 13 28 24 27 26 23 -19 -20 -21 -22 -23 -24 -25 -26 -27 -28 -29 -30 -31
leaf_value=-119.18343429836939 -87.293808263347998 73.068944190153431 -100.30116419741982 -12.976769365717287 156.04205383300783 156.08691694865854 245.34176645914715 26.977086245830243 139.31317027698864 -108.56626687937769 -23.298413605332954 -40.59070387821572 -63.915125661710412 33.369417768366198 83.049401827211739 85.275433933988538 -68.291428170152898 -70.356669134652918 321.60631064138107 -88.000566778009599 195.83563905913255 25.939514657722157 223.60495808919273 -23.093271849067914 79.154542048973383 9.7615816136768885 138.82556310755606 151.179775390625 -31.601395413793366 74.883296447753906
leaf_weight=281 124 134 190 146 20 129 120 130 66 145 207 51 205 136 108 47 93 357 31 275 87 157 30 126 79 175 131 25 145 50
leaf_count=281 124 134 190 146 20 129 120 130 66 145 207 51 205 136 108 47 93 357 31 275 87 157 30 126 79 175 131 25 145 50
internal_value=8.91436e-08 74.691 -48.7142 -12.5987 -8.12792 160.609 213.723 36.0031 125.199 -81.7177 -64.4319 29.3936 -68.0408 23.6499 63.8978 102.517 -58.5577 -81.3933 260.999 -103.76 171.453 7.18777 168.826 -42.287 50.1928 -1.6011 124.686 95.8559 -50.528 40.2844
internal_weight=4000 1579 2421 1156 804 775 310 616 465 1265 709 461 540 441 313 312 343 502 151 556 153 303 159 219 215 226 178 133 350 180
internal_count=4000 1579 2421 1156 804 775 310 616 465 1265 709 461 540 441 313 312 343 502 151 556 153 303 159 219 215 226 178 133 350 180
is_linear=0
shrinkage=0.05


Tree=28
num_leaves=31
num_cat=0
split_feature=0 1 0 1 1 1 0 1 0 0 0 1 1 1 1 0 1 1 1 1 0 1 0 0 0 2 1 0 1 0
split_gain=5.26379e+09 4.75476e+09 1.04123e+09 5.84074e+08 5.49056e+08 4.30894e+08 4.15377e+08 2.13926e+08 1.55561e+08 1.21007e+08 1.20109e+08 1.032e+08 9.84817e+07 8.22947e+07 6.68625e+07 6.38937e+07 5.98847e+07 5.94594e+07 5.8075e+07 5.70723e+07 5.20406e+07 4.57521e+07 4.3169e+07 4.30259e+07 4.0246e+07 3.91843e+07 3.34893e+07 3.32529e+07 2.96409e+07 2.76182e+07
threshold=52.500000000000007 250.65766534838406 83.500000000000014 112.16886386349329 384.8129077560904 311.94312157452032 25.500000000000004 386.75252308984102 86.500000000000014 21.500000000000004 110.50000000000001 165.73785648902148 320.45204609796252 203.66834643168971 36.676989233834725 108.50000000000001 454.83995206756958 430.42617802753932 197.33487942457614 308.41774469969965 64.500000000000014 441.94418335856795 97.500000000000014 6.5000000000000009 106.50000000000001 61.322067771690634 53.588725889044916 110.50000000000001 461.32885589068042 91.500000000000014
decision_type=2 2 2 2 2 2 2 2 2 2 2 2 2 2 2 2 2 2 2 2 2 2 2 2 2 2 2 2 2 2
left_child=5 3 7 14 12 9 23 19 18 25 16 26 24 27 -2 -14 29 -8 -5 -3 -9 -12 -16 -7 -4 -1 -11 -10 -22 -6
right_child=1 2 4 8 10 6 17 20 13 11 21 -13 15 -15 22 -17 -18 -19 -20 -21 28 -23 -24 -25 -26 -27 -28 -29 -30 -31
leaf_value=-118.89830602697425 -112.69858736165367 16.466396884801913 81.131525792831042 -35.759147578654904 146.97836234352806 -106.9694545200893 -9.5443707560398146 79.184069832511568 0.96433844675378111 -118.96826734666701 244.91180598561357 -50.70509002080221 132.33454055194707 66.829814779992191 -73.561479814537677 198.91484301757814 235.81800921714472 34.374554272148558 7.9308170220890988 60.135887506245325 111.32087525158396 330.7312646484375 -37.084409181213381 -62.752062234479631 129.50082208970014 -89.089338621374679 -81.343258032705279 44.20469916296787 162.97380865187873 195.87814926874071
leaf_weight=222 75 123 117 202 44 70 196 92 164 77 41 334 129 102 231 50 73 127 122 191 82 25 125 257 68 219 255 61 42 84
leaf_count=222 75 123 117 202 44 70 196 92 164 77 41 334 129 102 231 50 73 127 122 191 82 25 125 257 68 219 255 61 42 84
internal_value=1.6132e-08 50.7645 121.042 -24.6443 164.438 -64.8064 -32.4927 69.3764 5.24653 -83.7801 218.896 -70.3282 124.493 29.5758 -69.7927 150.932 199.679 7.72406 -19.308 43.0297 107.677 277.419 -60.7535 -72.2176 98.9105 -104.095 -90.0695 12.6873 128.816 179.069
internal_weight=4000 2243 1161 1082 631 1757 650 530 651 1107 267 666 364 327 431 179 201 323 324 314 216 66 356 327 185 441 332 225 124 128
internal_count=4000 2243 1161 1082 631 1757 650 530 651 1107 267 666 364 327 431 179 201 323 324 314 216 66 356 327 185 441 332 225 124 128
is_linear=0
shrinkage=0.05


Tree=29
num_leaves=31
num_cat=0
split_feature=0 1 0 1 1 0 1 1 1 0 1 0 1 0 1 0 0 0 1 1 0 1 1 1 0 1 2 0 1 1
split_gain=4.76172e+09 3.99163e+09 7.55825e+08 8.69903e+08 6.43047e+08 4.6878e+08 2.50258e+08 1.86699e+08 1.49793e+08 1.21209e+08 9.97246e+07 9.12236e+07 8.97726e+07 8.8466e+07 8.31715e+07 8.04005e+07 6.87074e+07 5.99464e+07 5.60447e+07 4.50936e+07 4.11865e+07 3.99871e+07 3.77249e+07 3.66174e+07 3.52397e+07 3.22979e+07 2.70263e+07 2.6089e+07 2.43086e+07 2.16474e+07
threshold=65.500000000000014 278.65164012193219 28.500000000000004 238.9366386132626 148.31177198436069 102.50000000000001 413.34259496448107 399.64789208597796 384.8129077560904 104.50000000000001 77.140504967472268 43.500000000000007 53.588725889044916 5.5000000000000009 168.2797513578985 79.500000000000014 81.500000000000014 49.500000000000007 209.02545622050252 336.28405146649965 94.500000000000014 183.8221104428994 480.67881250664101 426.7408510218541 77.500000000000014 209.02545622050252 72.758282137349724 113.50000000000001 32.808497987652721 318.59751692696818
decision_type=2 2 2 2 2 2 2 2 2 2 2 2 2 2 2 2 2 2 2 2 2 2 2 2 2 2 2 2 2 2
left_child=2 4 13 12 10 6 15 27 17 18 28 -10 -4 -1 -15 29 -8 -5 -6 -17 -12 -14 -9 26 -20 -11 -16 -7 -2 -3
right_child=1 5 3 8 9 7 16 22 11 25 20 -13 21 14 23 19 -18 -19 24 -21 -22 -23 -24 -25 -26 -27 -28 -29 -30 -31
leaf_value=-116.75908859540833 -108.82305646623884 31.112852864652069 -109.61306512451172 -23.441831415590613 -3.2719393444061282 145.61688313802082 130.5092272077288 233.4436128838118 9.2247975091482033 48.728271791490464 -47.361134223421139 66.667854075682797 -66.588111071548255 -99.879822605148505 -83.041186075362759 87.396835835774752 190.9259026358061 16.90929333553758 5.5804002428427344 131.37662763522781 -8.4755276448451564 -35.797474169244573 304.34025472005209 -40.487121047191323 50.626377958721584 99.824064565805301 -57.414526548541964 192.24397162543403 -66.217266667683916 75.758569994159771
leaf_weight=159 42 37 100 198 165 90 84 86 116 59 143 171 373 247 235 105 107 172 64 131 130 147 24 120 135 65 183 45 165 102
leaf_count=159 42 37 100 198 165 90 84 86 116 59 143 171 373 247 235 105 107 172 64 131 130 147 24 120 135 65 183 45 165 102
internal_value=-1.04237e-08 60.9549 -48.8243 -23.746 -7.59867 142.78 117.769 200.558 16.3428 32.8184 -48.6893 43.4505 -66.2273 -82.7489 -75.8603 94.0415 164.355 -4.68401 18.2743 111.809 -28.8442 -57.8838 248.912 -64.8327 36.1392 75.5124 -71.8219 161.159 -74.8619 63.8745
internal_weight=4000 1779 2221 1277 968 811 566 245 657 488 480 287 620 944 785 375 191 370 364 236 273 520 110 538 199 124 418 135 207 139
internal_count=4000 1779 2221 1277 968 811 566 245 657 488 480 287 620 944 785 375 191 370 364 236 273 520 110 538 199 124 418 135 207 139
is_linear=0
shrinkage=0.05


Tree=30
num_leaves=31
num_cat=0
split_feature=0 1 0 1 1 0 1 0 1 1 1 0 0 0 1 1 0 0 1 1 1 1 0 0 0 1 1 0 1 0
split_gain=4.30923e+09 3.86429e+09 7.11566e+08 6.53502e+08 4.1838e+08 3.92138e+08 3.29206e+08 1.4594e+08 1.21064e+08 1.13521e+08 1.08558e+08 1.02625e+08 9.06028e+07 9.0228e+07 5.84832e+07 4.95685e+07 4.93989e+07 4.21222e+07 4.02782e+07 3.84237e+07 3.76563e+07 3.66932e+07 3.62926e+07 3.44219e+07 2.83232e+07 2.77677e+07 2.66477e+07 2.45779e+07 2.37459e+07 2.23928e+07
threshold=54.500000000000007 282.0272881796447 79.500000000000014 160.05979831823615 311.94312157452032 27.500000000000004 402.88201469115398 81.500000000000014 90.038937574596545 413.34259496448107 160.05979831823615 109.50000000000001 108.50000000000001 26.500000000000004 218.65558833447957 458.15599641519219 97.500000000000014 12.500000000000002 336.28405146649965 469.92119013202608 60.054705286058763 32.808497987652721 114.50000000000001 39.500000000000007 6.5000000000000009 318.59751692696818 467.41368996476814 93.500000000000014 328.56610126965171 109.50000000000001
decision_type=2 2 2 2 2 2 2 2 2 2 2 2 2 2 2 2 2 2 2 2 2 2 2 2 2 2 2 2 2 2
left_child=4 3 9 8 10 17 12 -5 21 25 20 19 18 24 29 23 -10 -6 -4 -8 -1 -2 -16 -7 -12 -3 -13 -23 -14 -9
right_child=1 2 6 7 5 15 11 14 16 -11 13 26 28 -15 22 -17 -18 -19 -20 -21 -22 27 -24 -25 -26 -27 -28 -29 -30 -31
leaf_value=-111.45171827400257 -106.38605280095881 21.380939974301103 87.486881887501681 -3.7895057445979337 -83.501479881549699 -21.093301839454501 166.13244488428509 15.033275061322932 -39.852263127576123 105.97451556865985 -108.9877467824452 233.12941644841976 136.48781524658202 -41.497734337968211 59.947725378124915 44.512556578848098 0.40845396662580558 -48.180681387932587 127.32805746895927 217.21733398437502 -82.634861991013167 -74.239336914062505 128.68660777698864 16.762867755106054 -71.735717516747599 58.658406871458446 302.73575073242188 -42.518945725450237 186.74320668003017 58.514546070098881
leaf_weight=159 55 69 116 222 145 102 126 114 222 130 67 44 40 310 151 90 116 202 140 52 395 150 22 146 214 181 20 103 57 40
leaf_count=159 55 69 116 222 145 102 126 114 222 130 67 44 40 310 151 90 116 202 140 52 395 150 22 146 214 181 20 103 57 40
internal_value=2.46115e-08 47.6579 121.526 -12.611 -56.5124 -25.6032 155.662 27.4978 -46.6972 68.0767 -75.0039 200.58 124.868 -60.098 48.7388 12.7278 -26.035 -62.9401 109.275 181.056 -90.9054 -69.372 68.6891 1.19299 -80.6179 48.3698 254.881 -61.3255 166.019 26.3271
internal_weight=4000 2170 975 1195 1830 685 595 549 646 380 1145 242 353 591 327 338 338 347 256 178 554 308 173 248 281 250 64 253 97 154
internal_count=4000 2170 975 1195 1830 685 595 549 646 380 1145 242 353 591 327 338 338 347 256 178 554 308 173 248 281 250 64 253 97 154
is_linear=0
shrinkage=0.05


Tree=31
num_leaves=31
num_cat=0
split_feature=0 1 0 1 1 1 0 0 2 1 1 1 1 0 2 0 1 1 1 0 1 0 0 0 0 1 0 0 0 1
split_gain=3.89221e+09 3.23245e+09 6.46787e+08 7.06232e+08 4.85202e+08 3.98805e+08 2.29708e+08 1.27614e+08 1.11312e+08 1.09735e+08 9.66596e+07 9.36614e+07 9.11422e+07 6.38501e+07 5.99786e+07 5.59741e+07 5.44386e+07 4.82805e+07 4.66831e+07 4.49985e+07 4.21798e+07 4.21616e+07 3.70414e+07 3.63878e+07 3.34539e+07 2.84093e+07 2.82029e+07 2.74027e+07 2.71098e+07 2.85329e+07
threshold=66.500000000000014 271.87103834647758 31.500000000000004 262.66936496324269 126.84158506112635 379.87056024021513 94.500000000000014 94.500000000000014 6.2611228302942239 431.7399643637786 197.33487942457614 372.62803619930429 178.28277364175824 46.500000000000007 61.993413034701312 16.500000000000004 480.67881250664101 61.612390539996987 465.78995671486359 92.500000000000014 43.825689821106643 113.50000000000001 83.500000000000014 83.500000000000014 47.500000000000007 333.56476809472366 116.50000000000001 48.500000000000007 7.5000000000000009 79.200042370919576
decision_type=2 2 2 2 2 2 2 2 2 2 2 2 2 2 2 2 2 2 2 2 2 2 2 2 2 2 2 2 2 2
left_child=2 4 11 12 17 7 18 25 -6 13 23 14 20 -5 28 -13 26 -2 -7 -12 -4 -9 -19 -10 -11 -3 -8 -14 -1 -30
right_child=1 5 3 9 8 6 16 21 10 24 19 15 27 -15 -16 -17 -18 22 -20 -21 -22 -23 -24 -25 -26 -27 -28 -29 29 -31
leaf_value=-118.58208837094514 -72.903272130891878 51.346457349842993 -103.10509983116472 -15.95033552875606 129.97264006241508 114.82905511436223 184.22462348090278 111.98960631546703 -32.593777738341799 32.467776785712495 18.914199638476269 -68.710006935684774 -46.948233744177486 24.459241720504508 -67.240574369215423 -22.467063666234807 265.0165200510333 -72.89835168344004 168.27033069957386 60.387148915775242 -60.878527909079516 169.4914505004883 -25.52701437187195 8.2882313435418276 77.874547147202776 86.813866979425612 247.84563232421874 -11.182053928573927 -123.16618392619681 -80.649434447870021
leaf_weight=92 154 116 71 164 23 159 135 157 79 76 136 135 101 242 399 127 31 54 55 126 354 40 175 175 87 110 20 114 47 246
leaf_count=92 154 116 71 164 23 159 135 157 79 76 136 135 101 242 399 127 31 54 55 126 354 40 175 175 87 110 20 114 47 246
internal_value=8.15153e-08 56.0678 -43.3873 -18.4798 -8.22649 128.096 163.889 94.25 22.3488 22.0491 17.5516 -72.1762 -54.5125 8.13616 -80.8254 -46.2945 204.531 -51.2555 128.564 38.8592 -67.9328 123.665 -36.6975 -4.42704 56.7033 68.6094 192.434 -27.9838 -94.9042 -87.4695
internal_weight=4000 1745 2255 1209 922 823 400 423 539 569 516 1046 640 406 784 262 186 383 214 262 425 197 229 254 163 226 155 215 385 293
internal_count=4000 1745 2255 1209 922 823 400 423 539 569 516 1046 640 406 784 262 186 383 214 262 425 197 229 254 163 226 155 215 385 293
is_linear=0
shrinkage=0.05


Tree=32
num_leaves=31
num_cat=0
split_feature=0 1 1 0 1 0 1 0 0 1 1 4 4 1 1 0 0 0 2 0 1 0 0 1 1 1 0 0 1 1
split_gain=3.52372e+09 3.09981e+09 5.36879e+08 4.82175e+08 4.34472e+08 3.73775e+08 2.47186e+08 1.25075e+08 1.18111e+08 1.16711e+08 1.12828e+08 7.94114e+07 7.17231e+07 6.83276e+07 6.79456e+07 6.22424e+07 5.86671e+07 5.35618e+07 3.85628e+07 3.73279e+07 3.66718e+07 3.59638e+07 3.11883e+07 3.11219e+07 2.9638e+07 2.75034e+07 2.51396e+07 2.29328e+07 2.03616e+07 2.00114e+07
threshold=58.500000000000007 283.51024171150038 138.6502068021897 88.500000000000014 328.56610126965171 27.500000000000004 410.07637560171543 24.500000000000004 81.500000000000014 386.75252308984102 210.75391229532539 16.520819223616034 14.281843903940407 45.95298756625288 205.9278884203998 111.50000000000001 111.50000000000001 42.500000000000007 57.71193412526312 92.500000000000014 53.588725889044916 16.500000000000004 76.500000000000014 467.41368996476814 330.86919290267366 456.19273918625908 109.50000000000001 74.500000000000014 482.86561654135306 441.94418335856795
decision_type=2 2 2 2 2 2 2 2 2 2 2 2 2 2 2 2 2 2 2 2 2 2 2 2 2 2 2 2 2 2
left_child=4 2 12 9 7 21 15 18 -4 22 20 14 13 -2 -10 24 28 -7 -1 -15 -9 -6 -3 27 -5 -19 -16 -11 -8 -18
right_child=1 3 8 6 5 17 16 10 11 23 -12 -13 -14 19 26 -17 29 25 -20 -21 -22 -23 -24 -25 -26 -27 -28 -29 -30 -31
leaf_value=-98.25134256913573 -85.049548217228491 40.990126255192337 -6.0171813687541453 86.253112866505091 -68.289735641184549 -0.66656068423215087 171.55724295821847 -95.488317232353751 11.077977685247149 74.436074567159025 -25.134724093534025 136.0046664428711 45.856717815399172 -54.978620433807379 44.73202601586619 163.97059544154578 215.30156308128721 25.922114790998293 -71.29044968685848 -23.475776678702736 -59.522593347251274 -33.729322746711055 79.46682728634606 138.87442990816558 123.9619939313616 68.188282606336813 88.759060371212854 113.53660986328126 220.38751944082756 284.32771112351196
leaf_weight=239 112 158 233 83 194 170 102 86 175 75 261 20 20 206 155 70 21 134 298 173 403 123 79 52 140 54 41 75 27 21
leaf_count=239 112 158 233 83 194 170 102 86 175 75 261 20 20 206 155 70 21 134 298 173 403 123 79 52 140 54 41 75 27 21
internal_value=-3.663e-08 46.0456 -8.95683 115.179 -47.8292 -15.34 150.718 -64.869 22.1624 77.6167 -51.6797 38.9548 -46.9576 -50.7382 33.723 122.838 198.488 19.6716 -83.2898 -40.5987 -65.8479 -54.8799 53.8157 105.542 109.927 38.0624 53.9418 93.9863 181.778 249.815
internal_weight=4000 2038 1135 903 1962 675 464 1287 624 439 750 391 511 491 371 293 171 358 537 379 489 317 237 202 223 188 196 150 129 42
internal_count=4000 2038 1135 903 1962 675 464 1287 624 439 750 391 511 491 371 293 171 358 537 379 489 317 237 202 223 188 196 150 129 42
is_linear=0
shrinkage=0.05


Tree=33
num_leaves=31
num_cat=0
split_feature=0 1 0 1 1 1 0 1 0 1 1 0 0 0 0 2 1 0 1 2 1 2 1 2 1 1 1 0 0 0
split_gain=3.18848e+09 2.86206e+09 6.59267e+08 3.65909e+08 3.11273e+08 2.77613e+08 2.99963e+08 1.81304e+08 8.5395e+07 7.78138e+07 7.16247e+07 6.42831e+07 6.29373e+07 5.63853e+07 4.452e+07 4.24874e+07 4.04279e+07 3.8559e+07 3.34633e+07 3.19486e+07 3.11862e+07 3.10529e+07 2.94412e+07 2.80115e+07 2.77986e+07 2.68071e+07 2.47314e+07 2.44859e+07 2.35544e+07 1.91447e+07
threshold=52.500000000000007 237.41510719967832 86.500000000000014 390.94925191343532 110.60274852959073 210.75391229532539 27.500000000000004 339.87726380637832 86.500000000000014 418.48003750362801 320.45204609796252 111.50000000000001 74.500000000000014 6.5000000000000009 108.50000000000001 61.322067771690634 32.808497987652721 113.50000000000001 473.09473649295666 6.7799743855522019 452.87553939588008 59.649401920682024 169.60892327683374 80.209215987388674 441.94418335856795 197.33487942457614 67.977577996595798 93.500000000000014 109.50000000000001 20.500000000000004
decision_type=2 2 2 2 2 2 2 2 2 2 2 2 2 2 2 2 2 2 2 2 2 2 2 2 2 2 2 2 2 2
left_child=5 4 7 10 16 15 13 -3 25 21 28 20 18 -7 -12 26 -2 22 -9 -18 -5 -8 -10 -15 -13 -6 -1 -21 -4 -17
right_child=1 2 3 11 8 6 9 12 17 -11 14 24 -14 23 -16 29 19 -19 -20 27 -22 -23 -24 -25 -26 -27 -28 -29 -30 -31
leaf_value=-110.63989868164063 -93.391653238932292 22.10636282100397 65.646242286137166 145.17163376581104 -28.060171057961202 -88.714409946410129 -31.897286069999311 55.271463039301445 -5.9182238240395826 26.738236025546463 103.16833491049522 196.07674102783204 108.57295422253308 -59.448809447706793 156.44874772696662 -77.440155549225992 10.785368401663645 59.530379739761351 106.31728941264906 -63.90233257919995 187.38620638020836 -1.140176866568771 28.20123252517493 -32.982868116552183 270.11132696242561 4.9697599169851721 -79.287037706728341 -36.55027112736218 102.87474375240139 -53.886169032571708
leaf_weight=82 60 255 140 105 209 121 177 207 124 141 121 32 111 285 58 135 21 50 38 201 75 153 129 154 21 87 270 138 61 239
leaf_count=82 60 255 140 105 209 121 177 207 124 141 121 32 111 285 58 135 21 50 38 201 75 153 129 154 21 87 270 138 61 239
internal_value=6.63593e-08 39.5096 91.0433 127.679 -22.3915 -50.4383 -33.7603 54.288 0.7486 -4.35281 97.4296 177.012 77.3395 -58.4941 120.432 -74.1228 -55.3936 19.408 63.1888 -49.0606 162.761 -17.6372 11.4787 -50.1646 225.411 -18.352 -86.5908 -52.7679 76.9444 -62.3883
internal_weight=4000 2243 1224 613 1019 1757 1031 611 599 471 380 233 356 560 179 726 420 303 245 360 180 330 253 439 53 296 352 339 201 374
internal_count=4000 2243 1224 613 1019 1757 1031 611 599 471 380 233 356 560 179 726 420 303 245 360 180 330 253 439 53 296 352 339 201 374
is_linear=0
shrinkage=0.05


Tree=34
num_leaves=31
num_cat=0
split_feature=0 1 1 0 1 0 1 0 1 0 1 1 4 1 0 0 0 0 0 2 1 0 0 0 1 0 2 2 2 1
split_gain=2.87922e+09 2.57557e+09 4.79671e+08 4.38162e+08 3.12142e+08 2.64305e+08 1.80368e+08 1.26286e+08 9.42349e+07 9.25157e+07 8.24536e+07 7.462e+07 6.7932e+07 5.21635e+07 4.93339e+07 4.77042e+07 4.43563e+07 4.05178e+07 3.60837e+07 2.86472e+07 2.84722e+07 2.58244e+07 2.37107e+07 2.25827e+07 1.91723e+07 1.90992e+07 1.90594e+07 1.9e+07 1.89932e+07 1.89817e+07
threshold=55.500000000000007 291.49555011298372 152.4819719669554 88.500000000000014 328.56610126965171 25.500000000000004 410.07637560171543 79.500000000000014 413.34259496448107 22.500000000000004 207.54694488723848 71.796148651387782 16.520819223616034 216.69268403848795 111.50000000000001 111.50000000000001 76.500000000000014 42.500000000000007 99.500000000000014 37.220398720717796 53.588725889044916 5.5000000000000009 107.50000000000001 75.500000000000014 102.68909365932119 113.50000000000001 69.736205841340819 60.127466275372683 80.209215987388674 32.808497987652721
decision_type=2 2 2 2 2 2 2 2 2 2 2 2 2 2 2 2 2 2 2 2 2 2 2 2 2 2 2 2 2 2
left_child=4 2 11 8 9 21 14 -4 16 19 20 29 13 25 -5 -8 -3 27 -13 -1 -11 -6 -15 -10 -21 -9 -12 -7 -23 -2
right_child=1 3 7 6 5 17 15 12 23 10 26 18 -14 22 -16 -17 -18 -19 -20 24 -22 28 -24 -25 -26 -27 -28 -29 -30 -31
leaf_value=-96.123877083914635 -88.216164822048611 39.095177897540005 -5.7743875944260825 101.94305301979546 -86.175295613606778 -17.249422132134438 164.31744280674661 8.3222181171178828 84.701561759722125 -88.064797040153962 -38.444191871700866 -36.47619791606057 130.35259521484375 42.482868625355422 152.17176504135134 225.66920631045389 79.948100997924811 32.377809854243928 -3.1734949095910339 -89.60473352191093 -56.045616489098386 -55.295418536882465 81.225083753797747 122.13972404821595 -62.462372046478038 57.389337639186692 -11.927870966040571 14.606074935062365 -26.780513926914765 -54.187840625538549
leaf_weight=140 54 198 236 207 45 100 129 144 101 85 165 257 20 147 64 42 100 152 119 87 379 163 54 67 258 23 115 88 91 170
leaf_count=140 54 198 236 207 45 100 129 144 101 85 165 257 20 147 64 42 100 152 119 87 379 163 54 67 258 23 115 88 91 170
internal_value=-1.93194e-08 39.7075 -7.62569 103.513 -45.3192 -16.9738 139.177 23.067 69.6864 -60.057 -48.9809 -39.5461 40.6096 35.7323 113.805 179.386 52.8042 13.1818 -25.9362 -77.0479 -61.9112 -51.2644 52.8912 99.6323 -69.307 15.08 -27.5536 -2.33834 -45.0794 -62.3911
internal_weight=4000 2132 1224 908 1868 639 442 624 466 1229 744 600 388 368 271 171 298 340 376 485 464 299 201 168 345 167 280 188 254 224
internal_count=4000 2132 1224 908 1868 639 442 624 466 1229 744 600 388 368 271 171 298 340 376 485 464 299 201 168 345 167 280 188 254 224
is_linear=0
shrinkage=0.05


Tree=35
num_leaves=31
num_cat=0
split_feature=0 1 1 1 0 0 0 0 1 1 1 1 0 4 0 2 1 2 0 1 1 0 0 0 2 0 1 0 2 1
split_gain=2.60146e+09 2.30403e+09 4.98372e+08 3.25193e+08 3.21754e+08 2.07656e+08 1.33086e+08 1.23974e+08 1.22597e+08 1.1727e+08 8.82974e+07 7.92724e+07 4.21254e+07 3.76312e+07 3.58601e+07 3.50865e+07 3.42578e+07 3.26934e+07 3.07941e+07 2.92035e+07 2.88182e+07 2.71419e+07 2.69024e+07 2.44622e+07 2.40274e+07 1.91728e+07 1.78308e+07 1.75142e+07 1.69031e+07 1.65094e+07
threshold=58.500000000000007 308.41774469969965 168.2797513578985 372.62803619930429 91.500000000000014 27.500000000000004 25.500000000000004 89.500000000000014 210.75391229532539 398.07566753735949 102.68909365932119 461.32885589068042 76.500000000000014 14.281843903940407 42.500000000000007 51.953532569454971 480.67881250664101 8.8621341632346766 108.50000000000001 232.26342142091221 53.588725889044916 16.500000000000004 115.50000000000001 39.500000000000007 91.915798483059532 104.50000000000001 95.044671013456323 78.500000000000014 77.557260889592101 43.825689821106643
decision_type=2 2 2 2 2 2 2 2 2 2 2 2 2 2 2 2 2 2 2 2 2 2 2 2 2 2 2 2 2 2
